svm_type c_svc
kernel_type rbf
gamma 1.15777e-05
nr_class 3
total_sv 1801
rho -20.9898 97.9761 51.4794
label -1 1 0
nr_sv 481 480 840
SV
0 2451.645755015384 1:1 2:1 3:1 4:1 5:1 6:1 7:1 8:1 9:1 10:1 11:1 86315:1 86371:1.548959 86372:2.4370376 86373:3.0140034 
0 295.5255770835952 12:1 18:1 27:1 318:1 375:1 473:1 517:1 518:1 519:1 520:1 521:1 522:1 523:1 524:1 525:1 526:1 527:1 528:1 529:1 530:1 531:1 532:1 533:1 534:1 535:1 536:1 537:1 538:1 539:1 540:1 541:1 542:1 543:1 544:1 545:1 546:1 547:1 548:1 549:1 550:1 551:1 86308:4 86371:8.1796048 86372:6.9397334 86373:9.8806618 
0 1475.220258187815 61:1 152:1 160:1 230:1 288:1 425:1 552:1 553:1 554:1 555:1 556:1 557:1 558:1 559:1 560:1 561:1 562:1 563:1 564:1 565:1 566:1 567:1 568:1 569:1 570:1 571:1 572:1 86308:2 86371:4.8202447 86372:5.8842075 86373:5.2955478 
0 1040.083870856651 18:1 68:1 77:1 166:1 286:1 295:1 298:1 299:1 642:1 643:1 644:1 645:1 646:1 647:1 648:1 649:1 650:1 651:1 652:1 653:1 654:1 655:1 656:1 657:1 658:1 659:1 660:1 661:1 86371:8.1657147 86372:7.859021 86373:6.9752643 
0 2086.225363507508 60:1 575:1 1050:1 1051:1 1052:1 1053:1 1054:1 1055:1 1056:1 86371:1.7373756 86372:2.2041855 86373:2.0584389 
0 274.922401662079 5:1 18:1 68:1 95:1 219:1 227:1 522:1 762:1 836:1 861:1 1038:1 1534:1 1535:1 1536:1 1537:1 1538:1 1539:1 1540:1 1541:1 1542:1 1543:1 1544:1 1545:1 1546:1 1547:1 1548:1 1549:1 1550:1 1551:1 1552:1 1553:1 1554:1 1555:1 1556:1 1557:1 1558:1 1559:1 1560:1 1561:1 1562:1 1563:1 1564:1 1565:1 1566:1 86308:3 86314:1 86316:1 86371:11.375036 86372:11.823733 86373:9.8012315 
0 1572.6087025283 3:1 18:1 59:1 68:1 1061:1 1062:1 1075:1 1321:1 1322:1 1332:1 1587:1 1588:1 1589:1 1590:1 1591:1 1592:1 1593:1 1594:1 1595:1 1596:1 1597:1 1598:1 1599:1 1600:1 1601:1 1602:1 1603:1 1604:1 1605:1 1606:1 1607:1 1608:1 1609:1 1610:1 1611:1 1612:1 1613:1 1614:1 1615:1 1616:1 1617:1 1618:1 1619:1 1620:1 1621:1 1622:1 1623:1 1624:1 1625:1 86371:8.9257967 86372:12.038424 86373:7.0357796 
3548.788932411462 7228.595070080396 18:1 68:1 118:1 431:1 1708:1 3134:1 3267:1 3268:1 3269:1 3270:1 3271:1 3272:1 3273:1 3274:1 86308:2 86371:6.0448471 86372:4.5882064 86373:5.3669465 
0 2801.98607429298 18:1 68:1 665:1 942:1 943:1 986:1 1476:1 1589:1 1590:1 1608:1 2900:1 2914:1 3494:1 3495:1 3496:1 3497:1 3498:1 3499:1 3500:1 3501:1 3502:1 3503:1 3504:1 3505:1 3506:1 3507:1 3508:1 3509:1 3510:1 3511:1 3512:1 3513:1 3514:1 86308:1 86371:5.4988252 86372:5.6919431 86373:5.8092316 
0 1716.763257086861 3:1 61:1 230:1 288:1 424:1 2013:1 2227:1 2237:1 2324:1 3520:1 3521:1 3531:1 4016:1 4017:1 4018:1 4019:1 4020:1 4021:1 86308:1 86371:2.958662 86372:3.9446525 86373:4.0966855 
0 532.386459922733 1061:1 1062:1 1075:1 2394:1 2395:1 2443:1 2590:1 2591:1 2616:1 4415:1 4416:1 4417:1 4418:1 4419:1 4420:1 4421:1 4422:1 4423:1 4424:1 4425:1 86371:2.0475594 86372:4.4357773 86373:1.5166632 
4346.276226428183 4143.362624993973 18:1 60:1 67:1 91:1 236:1 1022:1 2548:1 4851:1 4852:1 4853:1 4854:1 4855:1 4856:1 4857:1 4858:1 4859:1 4860:1 4861:1 4862:1 4863:1 86371:4.5995146 86372:4.1845078 86373:3.2159776 
0 1995.475206119124 126:1 151:1 167:1 288:1 291:1 482:1 828:1 1019:1 2510:1 5007:1 5008:1 5009:1 5010:1 5011:1 5012:1 5013:1 5014:1 5015:1 5016:1 5017:1 5018:1 5019:1 5020:1 5021:1 86371:4.391729 86372:5.4195676 86373:5.1887034 
0 1031.156829457749 289:1 576:1 2818:1 3263:1 5022:1 5023:1 5024:1 5025:1 5026:1 5027:1 5028:1 86371:1.9946634 86372:3.1891204 86373:2.8162162 
0 290.3433300805029 482:1 662:1 1538:1 1553:1 2086:1 2347:1 2857:1 4706:1 5068:1 5069:1 5070:1 5071:1 5072:1 5073:1 5074:1 5075:1 5076:1 5077:1 5078:1 5079:1 5080:1 5081:1 5082:1 5083:1 5084:1 5085:1 5086:1 5087:1 5088:1 5089:1 5090:1 5091:1 5092:1 5093:1 5094:1 5095:1 86308:5 86371:7.9936573 86372:7.983985 86373:10.022358 
3025.467253328296 4434.336713281229 3:1 880:1 971:1 3494:1 5584:1 5585:1 5586:1 5587:1 5588:1 5589:1 5590:1 5591:1 5592:1 5593:1 5594:1 5595:1 86308:1 86314:1 86371:3.7742147 86372:3.1878174 86373:3.037968 
0 218.3890412733818 928:1 929:1 972:1 1104:1 1105:1 1124:1 1595:1 1596:1 1597:1 1598:1 1617:1 1618:1 1619:1 2392:1 2398:1 2399:1 2447:1 2942:1 3002:1 6216:1 6217:1 6218:1 6219:1 6220:1 6221:1 6222:1 6223:1 6224:1 6225:1 6226:1 6227:1 6228:1 6229:1 6230:1 6231:1 6232:1 6233:1 6234:1 6235:1 86371:1.993224 86372:6.3513017 86373:2.6554743 
0 4474.3537976428 152:1 226:1 429:1 836:1 4924:1 6236:1 6237:1 6238:1 6239:1 6240:1 6241:1 6242:1 6243:1 6244:1 6245:1 86316:1 86371:2.783384 86372:3.7830996 86373:3.4335164 
0 175.4419500507922 3:1 5:1 18:1 90:1 126:1 429:1 868:1 880:1 2064:1 2763:1 5590:1 6514:1 6515:1 6516:1 6517:1 6518:1 6519:1 6520:1 6521:1 6522:1 6523:1 6524:1 6525:1 6526:1 6527:1 86371:3.9856302 86372:5.0486231 86373:4.9657467 
1822.574787145684 1269.759966369242 3:1 5:1 18:1 93:1 157:1 225:1 227:1 556:1 778:1 828:1 3046:1 4096:1 4141:1 7443:1 7444:1 7445:1 7446:1 7447:1 7448:1 7449:1 7450:1 7451:1 7452:1 7453:1 7454:1 7455:1 7456:1 7457:1 7458:1 7459:1 7460:1 7461:1 7462:1 7463:1 7464:1 7465:1 7466:1 7467:1 7468:1 7469:1 7470:1 7471:1 86308:3 86371:9.1646887 86372:9.6836456 86373:6.1516657 
16.29352906054704 2294.382145018 3:1 18:1 68:1 91:1 157:1 167:1 193:1 226:1 238:1 522:1 593:1 826:1 971:1 1018:1 1403:1 1448:1 1645:1 3103:1 3112:1 4094:1 5390:1 5964:1 7506:1 7507:1 7508:1 7509:1 7510:1 7511:1 7512:1 7513:1 7514:1 7515:1 7516:1 7517:1 7518:1 7519:1 7520:1 7521:1 7522:1 7523:1 86308:2 86314:1 86316:1 86371:11.711113 86372:10.36935 86373:9.9195378 
0 1696.401055586011 960:1 961:1 1004:1 1098:1 1099:1 1118:1 1321:1 1322:1 1332:1 1597:1 1598:1 1619:1 3202:1 3203:1 3220:1 7524:1 7525:1 7526:1 7527:1 7528:1 7529:1 7530:1 7531:1 7532:1 7533:1 7534:1 7535:1 7536:1 7537:1 7538:1 7539:1 86308:1 86371:2.1966593 86372:5.0019154 86373:1.8014253 
0 4102.973453908719 18:1 942:1 943:1 952:1 953:1 986:1 996:1 1321:1 1322:1 1332:1 1664:1 1665:1 1693:1 6073:1 6074:1 6097:1 7642:1 7643:1 7644:1 7645:1 7646:1 7647:1 7648:1 7649:1 7650:1 86371:1.8934935 86372:3.8717454 86373:2.2347611 
0 3551.698848673583 15:1 18:1 19:1 143:1 1452:1 2894:1 5721:1 8022:1 8023:1 8024:1 8025:1 8026:1 8027:1 8028:1 8029:1 8030:1 8031:1 8032:1 8033:1 8034:1 8035:1 8036:1 8037:1 8038:1 8039:1 8040:1 8041:1 8042:1 86308:2 86371:6.4352785 86372:5.1199774 86373:7.4447442 
0 1968.794429181766 160:1 1403:1 2818:1 4091:1 5467:1 7386:1 8300:1 8301:1 8302:1 8303:1 8304:1 8305:1 8306:1 8307:1 86371:2.2081512 86372:2.8046081 86373:3.9872408 
1911.331181322656 3888.051358081661 18:1 68:1 286:1 299:1 529:1 1458:1 5467:1 8333:1 8334:1 8335:1 8336:1 8337:1 8338:1 8339:1 8340:1 8341:1 8342:1 8343:1 86316:1 86371:7.1101475 86372:5.2040068 86373:5.6858457 
0 2465.219761998342 96:1 97:1 98:1 109:1 160:1 227:1 836:1 1019:1 3287:1 4606:1 5699:1 5768:1 6673:1 6676:1 7449:1 8402:1 8403:1 8404:1 8405:1 8406:1 8407:1 8408:1 8409:1 8410:1 8411:1 8412:1 8413:1 8414:1 8415:1 8416:1 8417:1 8418:1 8419:1 86308:2 86316:1 86371:6.0495188 86372:7.2077288 86373:6.7427525 
0 433.6828748155085 18:1 328:1 743:1 3521:1 4429:1 6735:1 6750:1 6808:1 8919:1 8920:1 8921:1 8922:1 8923:1 8924:1 8925:1 8926:1 8927:1 8928:1 8929:1 8930:1 8931:1 8932:1 8933:1 8934:1 8935:1 8936:1 8937:1 86308:3 86371:5.1020729 86372:5.2506663 86373:8.6472608 
0 5601.698130510525 12:1 18:1 473:1 731:1 743:1 1205:1 5147:1 6044:1 6045:1 6066:1 6428:1 6823:1 9038:1 9039:1 9040:1 9041:1 9042:1 9043:1 9044:1 9045:1 9046:1 9047:1 9048:1 9049:1 9050:1 9051:1 9052:1 9053:1 9054:1 9055:1 9056:1 9057:1 9058:1 9059:1 9060:1 9061:1 86308:4 86371:6.815749 86372:7.0145492 86373:10.169702 
0 108.4739105264899 1788:1 1789:1 1796:1 9233:1 9234:1 9235:1 9236:1 9237:1 9238:1 9239:1 9240:1 9241:1 9242:1 9243:1 9244:1 9245:1 9246:1 9247:1 9248:1 9249:1 9250:1 9251:1 9252:1 86308:5 86371:2.1511131 86372:2.6925402 86373:2.1563467 
6183.946247844371 11044.04209688504 157:1 160:1 836:1 2818:1 4681:1 8306:1 9332:1 9333:1 9334:1 9335:1 9336:1 9337:1 9338:1 86316:1 86371:2.9618939 86372:2.4583418 86373:2.5797643 
360.7767123521519 4474.208834191124 3:1 59:1 166:1 1605:1 2808:1 4519:1 9859:1 9860:1 9861:1 9862:1 9863:1 9864:1 9865:1 9866:1 86308:1 86371:2.9099928 86372:3.0457264 86373:3.0442808 
1150.810101967733 6135.848206658513 95:1 169:1 227:1 234:1 472:1 836:1 2241:1 2242:1 2318:1 5630:1 7621:1 9867:1 9868:1 9869:1 9870:1 9871:1 9872:1 9873:1 9874:1 9875:1 86308:5 86316:1 86371:4.4926061 86372:3.9403567 86373:4.5670373 
0 2508.562522296315 3:1 18:1 68:1 160:1 227:1 425:1 778:1 1632:1 2221:1 6546:1 9972:1 9973:1 9974:1 9975:1 9976:1 9977:1 86308:1 86371:3.3938088 86372:4.0832819 86373:3.5229093 
0 5182.667120895484 3:1 763:1 7587:1 9978:1 9979:1 9980:1 9981:1 9982:1 86371:1.5444931 86372:2.0396324 86373:2.4158745 
0 1850.742698038343 942:1 943:1 956:1 957:1 958:1 959:1 960:1 961:1 986:1 1000:1 1001:1 1002:1 1003:1 1004:1 1065:1 1066:1 1080:1 1817:1 2664:1 2665:1 2722:1 4273:1 4286:1 10123:1 10124:1 10125:1 10126:1 10127:1 10128:1 10129:1 10130:1 10131:1 10132:1 10133:1 10134:1 86371:2.3676646 86372:5.1920227 86373:2.4403126 
0 0.5904227002933294 18:1 68:1 956:1 957:1 1000:1 1061:1 1062:1 1075:1 1076:1 1092:1 1093:1 1112:1 1662:1 1663:1 1691:1 2392:1 2942:1 3002:1 5415:1 5416:1 5453:1 7742:1 7743:1 7783:1 9119:1 10244:1 10245:1 10246:1 10247:1 10248:1 10249:1 10250:1 10251:1 10252:1 10253:1 10254:1 10255:1 10256:1 10257:1 10258:1 10259:1 10260:1 10261:1 10262:1 10263:1 10264:1 10265:1 10266:1 10267:1 10268:1 10269:1 10270:1 10271:1 10272:1 86308:1 86371:5.3155917 86372:8.4031597 86373:4.2812486 
0 741.9989791795103 3:1 15:1 18:1 60:1 68:1 151:1 227:1 234:1 836:1 1458:1 1475:1 1478:1 1741:1 2318:1 2505:1 2818:1 2899:1 3115:1 3279:1 3516:1 6477:1 6688:1 10273:1 10274:1 10275:1 10276:1 10277:1 10278:1 10279:1 10280:1 10281:1 10282:1 10283:1 10284:1 10285:1 10286:1 10287:1 10288:1 10289:1 10290:1 10291:1 10292:1 86308:2 86316:2 86371:7.4554786 86372:8.7199675 86373:7.8245539 
0 2965.12969408081 3:1 18:1 77:1 91:1 168:1 225:1 1580:1 1584:1 2519:1 2528:1 3025:1 3382:1 10568:1 10569:1 10570:1 10571:1 10572:1 10573:1 10574:1 10575:1 10576:1 86371:3.7749298 86372:4.1933831 86373:4.0316872 
0 3198.647571780575 3:1 18:1 68:1 160:1 263:1 576:1 590:1 778:1 971:1 1450:1 1977:1 2129:1 2144:1 2227:1 2237:1 3107:1 4407:1 6516:1 10577:1 10578:1 10579:1 10580:1 10581:1 10582:1 10583:1 10584:1 10585:1 10586:1 10587:1 10588:1 10589:1 10590:1 10591:1 10592:1 10593:1 10594:1 10595:1 10596:1 10597:1 10598:1 10599:1 86308:2 86314:1 86371:11.608687 86372:10.667932 86373:10.723381 
0 589.0559186572922 1061:1 1062:1 1075:1 1652:1 1653:1 1678:1 2398:1 2399:1 2447:1 3765:1 10611:1 10612:1 10613:1 10614:1 10615:1 10616:1 10617:1 10618:1 10619:1 10620:1 10621:1 10622:1 10623:1 10624:1 10625:1 10626:1 10627:1 10628:1 10629:1 10630:1 10631:1 86371:2.194042 86372:5.1076439 86373:1.6983141 
0 38.05007074148846 18:1 68:1 114:1 286:1 378:1 1999:1 4633:1 6830:1 10632:1 10633:1 10634:1 10635:1 10636:1 10637:1 10638:1 10639:1 10640:1 10641:1 10642:1 10643:1 10644:1 10645:1 10646:1 10647:1 86308:3 86371:6.8749746 86372:6.4968977 86373:6.6281277 
0 1445.358636465462 15:1 18:1 52:1 68:1 143:1 164:1 375:1 662:1 734:1 1341:1 1355:1 2156:1 2345:1 6001:1 7551:1 8181:1 10648:1 10649:1 10650:1 10651:1 10652:1 10653:1 10654:1 10655:1 10656:1 10657:1 10658:1 10659:1 10660:1 10661:1 10662:1 10663:1 10664:1 10665:1 10666:1 10667:1 10668:1 10669:1 86308:3 86371:8.5130184 86372:7.1106427 86373:9.3763389 
0 1234.372193210129 19:1 286:1 299:1 324:1 1312:1 1896:1 4736:1 8288:1 10699:1 10814:1 10815:1 10816:1 10817:1 10818:1 10819:1 10820:1 10821:1 10822:1 10823:1 86308:2 86371:5.3130139 86372:4.0344178 86373:5.6525683 
2825.812252239813 5273.711458610886 18:1 88:1 216:1 285:1 825:1 1574:1 3103:1 8046:1 10901:1 10902:1 10903:1 10904:1 10905:1 10906:1 10907:1 10908:1 10909:1 10910:1 10911:1 10912:1 86308:3 86371:5.4180169 86372:3.6090757 86373:4.9729074 
0 297008.3159463746 18:1 68:1 77:1 160:1 168:1 295:1 1414:1 1634:1 4024:1 10985:1 10986:1 10987:1 10988:1 10989:1 10990:1 10991:1 10992:1 10993:1 86315:1 86371:2.6853659 86372:4.0270146 86373:4.2876196 
0 887.1645497056559 3:1 15:1 18:1 68:1 93:1 156:1 160:1 168:1 286:1 288:1 299:1 433:1 763:1 1403:1 1451:1 1455:1 1580:1 1583:1 1584:1 2343:1 2505:1 2548:1 3602:1 4519:1 6010:1 9270:1 9462:1 11176:1 11177:1 11178:1 11179:1 11180:1 11181:1 11182:1 11183:1 11184:1 11185:1 11186:1 11187:1 11188:1 11189:1 11190:1 11191:1 11192:1 11193:1 11194:1 11195:1 11196:1 11197:1 11198:1 11199:1 11200:1 11201:1 11202:1 11203:1 11204:1 11205:1 86308:1 86371:14.965015 86372:14.74339 86373:11.291595 
0 911.8837863364668 12:1 18:1 27:1 259:1 265:1 1191:1 1212:1 1354:1 1874:1 2755:1 2770:1 2771:1 4892:1 5380:1 5721:1 5744:1 5745:1 7068:1 8246:1 8257:1 11027:1 11909:1 11910:1 11911:1 11912:1 11913:1 11914:1 11915:1 11916:1 11917:1 11918:1 11919:1 11920:1 11921:1 11922:1 11923:1 11924:1 11925:1 86308:2 86371:7.9221012 86372:6.9097636 86373:11.168135 
0 279.3854720665339 60:1 61:1 91:1 225:1 763:1 3072:1 7683:1 8564:1 11961:1 11962:1 11963:1 11964:1 11965:1 11966:1 11967:1 11968:1 11969:1 11970:1 11971:1 11972:1 11973:1 86371:3.3189501 86372:4.8099492 86373:3.8711006 
3438.610867513238 7134.714370976913 1239:1 6383:1 10776:1 12210:1 12211:1 12212:1 12213:1 12214:1 12215:1 12216:1 86308:1 86371:2.4627721 86372:2.2096112 86373:2.3276167 
0 931.2339928917781 18:1 68:1 143:1 734:1 735:1 946:1 947:1 990:1 2504:1 2860:1 5636:1 6149:1 6806:1 7265:1 7353:1 8181:1 9143:1 11754:1 12674:1 12675:1 12676:1 12677:1 12678:1 12679:1 12680:1 12681:1 12682:1 12683:1 12684:1 12685:1 12686:1 12687:1 12688:1 12689:1 86308:3 86371:7.9632463 86372:7.0874174 86373:8.9493363 
3006.706794681841 3213.734840720787 18:1 151:1 168:1 288:1 869:1 1427:1 2249:1 4728:1 7449:1 7619:1 8367:1 8948:1 10187:1 10190:1 13156:1 13157:1 13158:1 13159:1 13160:1 13161:1 13162:1 86308:2 86371:4.8326756 86372:3.6853914 86373:4.4819329 
694.6670940207077 6520.851752823314 18:1 68:1 288:1 836:1 869:1 1628:1 3287:1 4805:1 10567:1 12369:1 13403:1 13404:1 13405:1 13406:1 13407:1 13408:1 13409:1 13410:1 13411:1 13412:1 13413:1 13414:1 13415:1 86316:1 86371:6.0700828 86372:5.3965602 86373:5.5333571 
0 206.1420372910197 18:1 119:1 694:1 752:1 2583:1 7979:1 10930:1 12000:1 12001:1 12011:1 13637:1 13638:1 13639:1 13640:1 13641:1 13642:1 13643:1 13644:1 13645:1 13646:1 13647:1 13648:1 13649:1 13650:1 13651:1 13652:1 13653:1 13654:1 86371:4.6379347 86372:5.2520923 86373:8.109973 
0 1570.321937268077 3:1 77:1 160:1 166:1 286:1 576:1 763:1 1580:1 3069:1 4022:1 4023:1 4030:1 4033:1 5664:1 7544:1 9358:1 10978:1 12193:1 14131:1 14132:1 14133:1 14134:1 14135:1 14136:1 14137:1 14138:1 14139:1 14140:1 14141:1 14142:1 14143:1 14144:1 14145:1 14146:1 14147:1 14148:1 14149:1 14150:1 14151:1 14152:1 14153:1 86308:1 86371:7.6981248 86372:8.51505 86373:6.7868252 
0 155.2152001495852 3:1 151:1 168:1 295:1 649:1 660:1 2818:1 3070:1 4413:1 5917:1 9421:1 10991:1 14246:1 14247:1 14248:1 14249:1 14250:1 14251:1 14252:1 14253:1 86371:3.4657847 86372:5.3045656 86373:4.2296497 
3258.922010856865 2801.327054142087 2590:1 2591:1 2616:1 2665:1 5180:1 5181:1 5209:1 9235:1 9236:1 9246:1 11059:1 11060:1 13043:1 13044:1 13075:1 14862:1 14863:1 14864:1 14865:1 14866:1 14867:1 14868:1 14869:1 14870:1 14871:1 14872:1 14873:1 86308:4 86371:3.1454605 86372:2.9166382 86373:1.9379013 
2058.657406312289 3248.813872928814 18:1 60:1 68:1 115:1 173:1 289:1 306:1 474:1 482:1 869:1 1345:1 1398:1 1521:1 1533:1 1906:1 2238:1 3305:1 4015:1 4030:1 7412:1 7427:1 7730:1 8506:1 9428:1 10055:1 10916:1 10983:1 11125:1 11243:1 14188:1 15281:1 15282:1 15283:1 15284:1 15285:1 15286:1 15287:1 15288:1 15289:1 15290:1 15291:1 15292:1 15293:1 15294:1 15295:1 15296:1 15297:1 15298:1 15299:1 15300:1 15301:1 15302:1 15303:1 15304:1 15305:1 15306:1 15307:1 15308:1 15309:1 15310:1 15311:1 86308:5 86371:19.186405 86372:16.063852 86373:13.749742 
0 1318.204568735895 3:1 152:1 295:1 870:1 13405:1 14216:1 15538:1 15539:1 15540:1 15541:1 15542:1 15543:1 15544:1 86371:2.0790924 86372:3.2822173 86373:2.6386903 
70.92998923538096 3948.815812745355 18:1 68:1 169:1 207:1 482:1 946:1 947:1 990:1 2287:1 7184:1 9143:1 11068:1 11084:1 11732:1 11733:1 11746:1 15993:1 15994:1 15995:1 15996:1 15997:1 15998:1 15999:1 16000:1 86308:3 86371:4.8874702 86372:4.0553684 86373:5.0571613 
0 2352.316131375673 18:1 68:1 173:1 289:1 590:1 828:1 4407:1 4430:1 7545:1 8308:1 8602:1 10916:1 16214:1 16215:1 16216:1 16217:1 16218:1 16219:1 16220:1 16221:1 16222:1 16223:1 16224:1 86308:1 86371:5.2117633 86372:4.8913639 86373:4.8968728 
1449.695565774094 4851.56179125465 3:1 60:1 93:1 154:1 166:1 175:1 2012:1 3287:1 5568:1 5992:1 8348:1 12370:1 16424:1 16425:1 16426:1 16427:1 16428:1 16429:1 16430:1 16431:1 16432:1 16433:1 16434:1 86308:1 86371:5.0693427 86372:4.7114142 86373:4.2192431 
0 5843.548523637922 169:1 2156:1 3147:1 3237:1 4075:1 4633:1 6001:1 7186:1 10654:1 12758:1 16820:1 16821:1 16822:1 16823:1 86308:2 86371:3.2701307 86372:2.3907978 86373:4.3390715 
1536.197993254197 1369.758096012589 18:1 68:1 472:1 1579:1 2894:1 3070:1 3483:1 4710:1 4781:1 5046:1 6301:1 7009:1 7010:1 7035:1 7092:1 7093:1 7113:1 9123:1 9124:1 9155:1 10415:1 13563:1 13570:1 16438:1 16439:1 16445:1 16453:1 16454:1 17113:1 17114:1 17115:1 17116:1 17117:1 17118:1 17119:1 17120:1 17121:1 17122:1 17123:1 17124:1 17125:1 17126:1 17127:1 17128:1 17129:1 17130:1 17131:1 17132:1 17133:1 17134:1 17135:1 86308:3 86371:11.165287 86372:10.028595 86373:7.8061177 
0 974.9935220958761 12:1 18:1 20:1 68:1 114:1 126:1 169:1 173:1 286:1 1143:1 1739:1 1894:1 3168:1 6049:1 8507:1 9465:1 9481:1 15012:1 17148:1 17149:1 17150:1 17151:1 17152:1 17153:1 17154:1 17155:1 17156:1 17157:1 17158:1 17159:1 17160:1 17161:1 17162:1 17163:1 17164:1 17165:1 17166:1 17167:1 17168:1 17169:1 17170:1 17171:1 17172:1 17173:1 17174:1 17175:1 86308:3 86371:11.561082 86372:10.359678 86373:12.07924 
0 540.771031929485 4200:1 5636:1 17808:1 86308:1 86371:0.53598485 86372:1.032197 86373:1.4318182 
0 380.6653991938332 259:1 734:1 1749:1 1896:1 3942:1 5074:1 7608:1 7609:1 8083:1 10699:1 11299:1 11313:1 12617:1 16807:1 18171:1 18172:1 18173:1 18174:1 18175:1 18176:1 18177:1 18178:1 18179:1 18180:1 18181:1 18182:1 18183:1 18184:1 18185:1 18186:1 18187:1 18188:1 18189:1 18190:1 86308:4 86310:0.022727273 86312:0.022727273 86371:8.1242765 86372:7.9645681 86373:7.9111554 
0 4106.671469305687 18:1 68:1 96:1 160:1 1416:1 1458:1 1475:1 1540:1 2489:1 3337:1 5699:1 5713:1 12329:1 18333:1 18334:1 18335:1 18336:1 18337:1 18338:1 18339:1 18340:1 18341:1 18342:1 86308:2 86316:2 86371:5.3975882 86372:4.6860376 86373:5.9163742 
0 35.95534894897011 18:1 68:1 522:1 640:1 1019:1 2104:1 2505:1 2554:1 3103:1 4734:1 4914:1 6479:1 6494:1 12639:1 18191:1 19064:1 19065:1 19066:1 19067:1 19068:1 19069:1 19070:1 19071:1 19072:1 19073:1 86308:2 86371:5.5555415 86372:5.9579104 86373:5.4865481 
0 1526.414580459508 15:1 18:1 95:1 96:1 98:1 458:1 1403:1 1500:1 3517:1 5664:1 7389:1 7736:1 19087:1 19088:1 19089:1 19090:1 19091:1 19092:1 19093:1 19094:1 19095:1 19096:1 19097:1 19098:1 86371:3.7895007 86372:4.6119707 86373:5.5985286 
0 645.4217760914892 219:1 286:1 1143:1 4633:1 13741:1 19270:1 19271:1 19272:1 19273:1 19274:1 19275:1 19276:1 19277:1 19278:1 86308:2 86314:1 86371:3.6892442 86372:2.9667995 86373:4.3439563 
0 2264.31509299325 79:1 126:1 286:1 1341:1 4710:1 6768:1 6829:1 16651:1 16652:1 16660:1 19279:1 19280:1 19281:1 19282:1 19283:1 19284:1 19285:1 19286:1 19287:1 19288:1 19289:1 19290:1 19291:1 86371:4.7461403 86372:4.7185262 86373:6.5353336 
0 1502.752558607772 15:1 494:1 528:1 1231:1 1966:1 3035:1 4311:1 4710:1 5793:1 7540:1 7559:1 11329:1 17305:1 17314:1 17315:1 19223:1 20027:1 20028:1 20029:1 20030:1 20031:1 86308:2 86371:4.5901061 86372:4.1615465 86373:6.2483474 
0 2620.502608699458 227:1 2223:1 3254:1 7765:1 11653:1 13859:1 13865:1 20045:1 20046:1 20047:1 20048:1 86308:1 86315:1 86371:2.0426371 86372:2.4827013 86373:2.4746615 
0 4263.577257585709 18:1 49:1 61:1 62:1 68:1 151:1 694:1 836:1 2936:1 3107:1 8231:1 10744:1 20135:1 20136:1 20137:1 20138:1 20139:1 20140:1 20141:1 86316:1 86371:4.4735116 86372:4.6789695 86373:4.8475189 
0 1499.535321324575 3:1 18:1 68:1 93:1 288:1 599:1 604:1 763:1 2103:1 5664:1 13350:1 13727:1 13734:1 16794:1 20232:1 20233:1 20234:1 20235:1 20236:1 20237:1 20238:1 20239:1 20240:1 20241:1 20242:1 20243:1 20244:1 86308:1 86371:7.9952387 86372:7.8357654 86373:7.1689959 
0 699.4684945696491 118:1 679:1 1143:1 1192:1 1985:1 2790:1 3237:1 5896:1 20646:1 20647:1 20648:1 20649:1 20650:1 20651:1 20652:1 20653:1 20654:1 20655:1 86308:1 86371:3.7059554 86372:3.8184221 86373:4.4756224 
0 87.36584601789836 18:1 286:1 328:1 662:1 1234:1 1341:1 1372:1 3068:1 4706:1 5068:1 5076:1 10062:1 10717:1 12743:1 13183:1 15471:1 20668:1 20669:1 20670:1 20671:1 20672:1 20673:1 20674:1 20675:1 20676:1 20677:1 20678:1 20679:1 20680:1 20681:1 20682:1 20683:1 20684:1 20685:1 20686:1 20687:1 20688:1 20689:1 86308:1 86371:7.5658381 86372:7.597659 86373:8.8365029 
6395.174682436563 14949.305961055 2064:1 3494:1 6274:1 11326:1 20932:1 20933:1 20934:1 86371:1.8730262 86372:1.0793424 86373:2.0476314 
0 2265.352536859041 15:1 19:1 1860:1 2287:1 4275:1 5486:1 7244:1 11068:1 11084:1 14035:1 21179:1 21834:1 21835:1 21836:1 21837:1 21838:1 21839:1 21840:1 21841:1 21842:1 86308:5 86310:0.017064165 86312:0.017064165 86371:4.124887 86372:2.713087 86373:6.1620259 
0 2417.725977794569 18:1 293:1 789:1 790:1 809:1 1292:1 1354:1 1817:1 2589:1 2614:1 2665:1 4854:1 6179:1 6948:1 6949:1 6960:1 7070:1 7104:1 8632:1 10976:1 11059:1 11060:1 12495:1 15252:1 18729:1 21911:1 21912:1 21913:1 21914:1 21915:1 21916:1 21917:1 21918:1 21919:1 21920:1 21921:1 21922:1 21923:1 21924:1 21925:1 21926:1 21927:1 21928:1 21929:1 21930:1 21931:1 21932:1 21933:1 21934:1 21935:1 21936:1 21937:1 21938:1 86308:5 86371:9.1894038 86372:8.6952323 86373:9.1153639 
0 1625.032531016868 12:1 18:1 378:1 478:1 679:1 741:1 1786:1 1787:1 1794:1 2151:1 3237:1 5069:1 11362:1 11363:1 11369:1 11370:1 11415:1 11416:1 11424:1 13792:1 13797:1 13798:1 14296:1 19803:1 22097:1 22098:1 22099:1 22100:1 22101:1 22102:1 22103:1 22104:1 22105:1 22106:1 22107:1 86308:4 86371:5.5810283 86372:4.6367547 86373:6.782217 
0 1557.436892604101 90:1 227:1 288:1 1398:1 5097:1 5114:1 5506:1 7449:1 9426:1 10057:1 22415:1 22416:1 22417:1 22418:1 22419:1 22420:1 22421:1 22422:1 22423:1 22424:1 22425:1 86308:1 86371:3.5293337 86372:4.6325075 86373:3.8381588 
0 3287.229497286119 18:1 68:1 836:1 942:1 943:1 986:1 1786:1 1787:1 1794:1 2670:1 2671:1 2731:1 6941:1 10251:1 10252:1 10267:1 10567:1 23165:1 23166:1 23167:1 23168:1 23169:1 23170:1 23171:1 23172:1 23173:1 23174:1 23175:1 86316:1 86371:2.7936438 86372:5.231206 86373:2.9751501 
0 2163.647205552613 5:1 60:1 61:1 4781:1 22538:1 23641:1 23642:1 23643:1 23644:1 23645:1 86308:1 86371:1.6910025 86372:2.5476801 86373:2.7613173 
0 2786.916261936779 18:1 68:1 942:1 943:1 986:1 2394:1 2395:1 2443:1 23165:1 23166:1 23169:1 23674:1 23675:1 23676:1 86371:1.1981596 86372:2.7480132 86373:2.0538272 
0 307.5511163812933 18:1 68:1 91:1 286:1 298:1 299:1 826:1 1061:1 1062:1 1075:1 1092:1 1093:1 1112:1 3339:1 3494:1 4539:1 4540:1 4546:1 5415:1 5416:1 5453:1 7217:1 7875:1 8311:1 8564:1 9894:1 10272:1 10852:1 10968:1 17280:1 17281:1 17291:1 22926:1 24423:1 24424:1 24425:1 24426:1 24427:1 24428:1 24429:1 24430:1 24431:1 24432:1 24433:1 24434:1 24435:1 24436:1 24437:1 24438:1 24439:1 24440:1 24441:1 86308:1 86371:10.642773 86372:11.599422 86373:7.7578049 
245.7774005665887 2751.759066697458 18:1 68:1 99:1 152:1 289:1 290:1 307:1 457:1 472:1 700:1 836:1 869:1 881:1 2210:1 2336:1 3067:1 3517:1 4532:1 5534:1 10567:1 12394:1 12971:1 24598:1 24599:1 24600:1 24601:1 24602:1 24603:1 24604:1 24605:1 24606:1 24607:1 24608:1 24609:1 24610:1 24611:1 24612:1 24613:1 24614:1 24615:1 24616:1 24617:1 86308:3 86316:1 86371:8.6899641 86372:9.1502931 86373:7.1597429 
0 626.2080956457701 15:1 18:1 68:1 98:1 126:1 6651:1 12242:1 13769:1 19224:1 19534:1 24655:1 24656:1 24657:1 24658:1 24659:1 24660:1 24661:1 24662:1 86371:4.0729836 86372:4.8774731 86373:4.0495434 
0 880.3271149194735 18:1 68:1 160:1 167:1 226:1 1022:1 1458:1 1475:1 1645:1 2818:1 8306:1 24663:1 24664:1 24665:1 24666:1 24667:1 86316:1 86371:4.6961499 86372:4.9211111 86373:4.382739 
0 2332.880564370592 3:1 1022:1 1628:1 2505:1 10750:1 12944:1 24668:1 24669:1 24670:1 86371:1.5446291 86372:2.2942152 86373:2.1611556 
0 3437.204450974679 5:1 18:1 429:1 3333:1 3906:1 12560:1 24886:1 24887:1 24888:1 24889:1 24890:1 24891:1 24892:1 24893:1 24894:1 86371:2.9496956 86372:3.1333123 86373:3.9169921 
1108.362761485593 2669.621643809181 12:1 18:1 68:1 528:1 787:1 788:1 807:1 2107:1 2590:1 2591:1 2616:1 4241:1 4254:1 4425:1 5246:1 5247:1 5268:1 5650:1 5817:1 5934:1 7092:1 7093:1 7113:1 16438:1 16439:1 16453:1 16454:1 16455:1 19798:1 22986:1 25007:1 25008:1 25009:1 25010:1 25011:1 25012:1 25013:1 25014:1 25015:1 25016:1 25017:1 25018:1 25019:1 25020:1 86308:6 86371:11.790607 86372:9.8279474 86373:9.3814459 
0 1454.606651453575 1098:1 1099:1 1118:1 6219:1 9026:1 9027:1 9037:1 14354:1 14606:1 25441:1 25442:1 25443:1 25444:1 25445:1 25446:1 86371:0.91853201 86372:2.5045549 86373:1.5769131 
1079.425581290432 0 60:1 286:1 299:1 472:1 576:1 875:1 3611:1 5129:1 6178:1 12394:1 23074:1 24609:1 25565:1 25566:1 25567:1 25568:1 25569:1 25570:1 25571:1 25572:1 25573:1 25574:1 25575:1 25576:1 25577:1 25578:1 25579:1 25580:1 25581:1 86308:3 86371:6.7341333 86372:7.6408887 86373:3.624978 
0 2467.201105736329 18:1 271:1 1992:1 2287:1 3332:1 4892:1 4900:1 5215:1 7570:1 7654:1 7671:1 7907:1 10911:1 12496:1 14035:1 14210:1 22292:1 25609:1 25610:1 25611:1 25612:1 25613:1 25614:1 25615:1 25616:1 25617:1 25618:1 25619:1 25620:1 25621:1 25622:1 25623:1 25624:1 25625:1 25626:1 25627:1 86308:6 86371:9.2842281 86372:6.690415 86373:9.0253569 
0 2467.27809029962 99:1 152:1 160:1 226:1 2818:1 3848:1 4701:1 6240:1 8306:1 18381:1 20115:1 25650:1 25651:1 86308:2 86371:2.0512645 86372:2.9727371 86373:2.9759984 
6976.91595063698 14730.62096485741 5536:1 9841:1 25903:1 86308:1 86371:0.84654731 86372:0.81585678 86373:1.3375959 
3634.738361667961 2137.390572444499 18:1 68:1 1786:1 1787:1 1794:1 4100:1 4101:1 4148:1 4149:1 15685:1 19817:1 25934:1 25935:1 25936:1 25937:1 25938:1 25939:1 25940:1 25941:1 25942:1 25943:1 25944:1 25945:1 25946:1 25947:1 86308:5 86371:5.1397132 86372:4.1043732 86373:3.7559136 
1963.97769302478 300000 25972:1 86308:1 86373:1 
0 16577.51712788856 18:1 68:1 91:1 226:1 227:1 238:1 1481:1 3967:1 3968:1 3975:1 3976:1 3977:1 3978:1 3979:1 86308:2 86371:2.5268347 86372:3.7550604 86373:3.7181049 
0 550.2698843903411 18:1 169:1 1480:1 1866:1 1887:1 3591:1 10327:1 10328:1 10375:1 14690:1 26452:1 26453:1 26454:1 26455:1 26456:1 26457:1 26458:1 26459:1 26460:1 26461:1 26462:1 86308:2 86371:4.2501774 86372:4.6804824 86373:5.0693402 
0 2327.397277454961 12:1 73:1 286:1 299:1 322:1 743:1 2763:1 2764:1 2782:1 2783:1 4996:1 7904:1 20142:1 20144:1 24073:1 26634:1 26635:1 26636:1 26637:1 26638:1 26639:1 26640:1 26641:1 26642:1 26643:1 26644:1 26645:1 26646:1 86308:2 86371:6.204979 86372:4.5436388 86373:8.2513821 
920.7028099142543 5904.315503865818 152:1 1050:1 7953:1 26888:1 26889:1 26890:1 26891:1 86371:1.2395105 86372:1.9471778 86373:1.8133117 
3753.886094148113 4101.89787547231 3:1 5:1 61:1 160:1 522:1 576:1 2325:1 2855:1 4094:1 4783:1 4795:1 5350:1 7450:1 8305:1 10511:1 23786:1 26994:1 26995:1 26996:1 26997:1 26998:1 26999:1 27000:1 27001:1 27002:1 27003:1 27004:1 27005:1 86308:3 86371:6.1185332 86372:5.667292 86373:4.2141747 
0 7189.566663312426 3:1 7806:1 27172:1 86371:0.36571008 86372:1.1912503 86373:1.4430397 
2267.857920120516 4091.050676668135 18:1 68:1 160:1 161:1 167:1 191:1 285:1 762:1 1645:1 3070:1 3095:1 5046:1 5212:1 6078:1 11316:1 11318:1 11319:1 11320:1 20667:1 27380:1 86308:1 86310:0.75 86312:0.75 86371:5.0338249 86372:4.9491978 86373:4.0169774 
0 549.667919902137 3:1 286:1 299:1 4730:1 8295:1 11775:1 11782:1 19736:1 27498:1 27499:1 27500:1 27501:1 27502:1 27503:1 27504:1 27505:1 86371:4.3633344 86372:4.2826019 86373:3.3540636 
0 2819.242036583683 3:1 5:1 18:1 68:1 647:1 778:1 1402:1 1455:1 2545:1 2755:1 3494:1 21667:1 26202:1 27515:1 27516:1 27517:1 27518:1 27519:1 27520:1 27521:1 86371:4.0106043 86372:4.3616181 86373:4.6277777 
0 2664.800402926658 2854:1 22537:1 27857:1 86371:0.46808511 86372:1.3617021 86373:1.1702128 
0 113.7388965238533 18:1 68:1 160:1 167:1 226:1 1022:1 1645:1 2818:1 8306:1 24663:1 24664:1 24665:1 24666:1 24667:1 28002:1 28003:1 86371:4.6821834 86372:5.2088206 86373:4.108996 
0 3789.4330417052 91:1 169:1 557:1 576:1 763:1 1384:1 1631:1 1641:1 11969:1 13478:1 15774:1 28262:1 28263:1 86308:1 86371:2.2611151 86372:3.0026927 86373:2.7361922 
0 937.8385452015353 18:1 68:1 942:1 943:1 986:1 1597:1 1598:1 1619:1 1652:1 1653:1 1678:1 4555:1 9299:1 9300:1 9323:1 14332:1 14333:1 14429:1 14570:1 28542:1 28543:1 28544:1 28545:1 28546:1 28547:1 28548:1 86371:2.2256552 86372:4.4846636 86373:2.2896812 
0 5660.43305130948 18:1 68:1 885:1 20298:1 29166:1 29167:1 29168:1 86371:1.8041705 86372:1.7808949 86373:2.4149346 
656.5373186069844 8300.39396547284 18:1 836:1 1448:1 5770:1 6619:1 6637:1 10567:1 20245:1 29480:1 29481:1 29482:1 29483:1 29484:1 86308:1 86316:1 86371:2.5654918 86372:2.4797046 86373:2.9548036 
0 1795.287595805168 15:1 164:1 169:1 259:1 348:1 362:1 2149:1 2289:1 5212:1 6208:1 13397:1 20211:1 21974:1 22814:1 23108:1 29636:1 29719:1 29720:1 29721:1 29722:1 29723:1 29724:1 29725:1 29726:1 29727:1 29728:1 29729:1 29730:1 29731:1 29732:1 29733:1 86308:4 86314:1 86371:7.7064191 86372:6.8719657 86373:8.4216152 
0 1600.499791258329 98:1 167:1 642:1 828:1 8376:1 10315:1 29839:1 29840:1 29841:1 29842:1 29843:1 29844:1 29845:1 29846:1 29847:1 29848:1 29849:1 86371:3.0938055 86372:4.4006616 86373:3.5055329 
0 1092.668957473276 3:1 18:1 68:1 164:1 731:1 1989:1 3070:1 3410:1 4733:1 4736:1 15473:1 29999:1 30000:1 30001:1 30002:1 30003:1 30004:1 30005:1 30006:1 30007:1 30008:1 30009:1 86308:2 86314:1 86371:4.7900203 86372:4.1340706 86373:5.0759091 
1593.879118105662 5365.242359692574 3:1 61:1 522:1 558:1 2324:1 5239:1 7842:1 7907:1 12478:1 13405:1 30119:1 30120:1 30121:1 30122:1 30123:1 30124:1 86308:3 86310:0.0035235318 86312:0.0035235318 86371:3.5121922 86372:2.9297699 86373:3.5580379 
779.04155432506 13764.27204043716 295:1 314:1 836:1 20245:1 20249:1 30518:1 86316:1 86371:1.4037613 86372:1.5077272 86373:2.0885115 
4308.854786896952 42843.2626163255 938:1 939:1 982:1 86371:0.31531532 86372:0.53153153 86373:1.1531532 
0 2376.279038411203 18:1 942:1 943:1 986:1 1065:1 1066:1 1080:1 1104:1 1105:1 1124:1 1321:1 1322:1 1332:1 2665:1 3313:1 6945:1 6955:1 12152:1 12165:1 13282:1 13283:1 13327:1 14855:1 21350:1 21351:1 21412:1 21413:1 22552:1 30750:1 30751:1 30752:1 30753:1 30754:1 86308:1 86371:2.5681757 86372:4.8243036 86373:2.6075207 
2468.833486548647 3961.259649373685 18:1 514:1 10752:1 30809:1 30810:1 86371:1.0484194 86372:1.32897 86373:1.6226106 
0 3776.50467245654 12:1 18:1 49:1 322:1 662:1 789:1 790:1 809:1 1786:1 1787:1 1794:1 5603:1 5922:1 9116:1 9117:1 9145:1 9146:1 10331:1 10332:1 10380:1 13700:1 15560:1 15719:1 18134:1 19103:1 21096:1 24381:1 24391:1 24854:1 27217:1 28292:1 30850:1 30945:1 30946:1 30947:1 30948:1 30949:1 30950:1 30951:1 30952:1 30953:1 30954:1 30955:1 30956:1 30957:1 86308:5 86371:8.8265328 86372:6.6743803 86373:8.4990869 
1647.599319291416 1257.933817726486 18:1 263:1 484:1 789:1 790:1 809:1 1786:1 1787:1 1788:1 1789:1 1794:1 1796:1 1817:1 2184:1 2185:1 2197:1 2198:1 2589:1 2614:1 3777:1 10596:1 11886:1 13034:1 13062:1 23300:1 23301:1 23307:1 23308:1 31197:1 31198:1 31199:1 31200:1 31201:1 31202:1 31203:1 31204:1 31205:1 86308:5 86371:4.2946769 86372:5.3526031 86373:2.3527199 
0 4348.226491502616 19:1 172:1 286:1 299:1 375:1 528:1 1137:1 1341:1 1902:1 1944:1 2624:1 5603:1 5920:1 8537:1 9402:1 10009:1 11100:1 11538:1 12607:1 28434:1 31232:1 31233:1 31234:1 31235:1 31236:1 31237:1 31238:1 31239:1 31240:1 31241:1 31242:1 31243:1 31244:1 31245:1 31246:1 31247:1 86308:4 86371:8.8430652 86372:4.9014284 86373:10.255506 
0 2998.086645204606 3:1 15:1 18:1 60:1 68:1 91:1 219:1 226:1 231:1 260:1 586:1 828:1 836:1 861:1 1050:1 4798:1 6107:1 6392:1 6478:1 7737:1 7758:1 8905:1 9294:1 10284:1 13515:1 31402:1 31403:1 31404:1 31405:1 31406:1 31407:1 31408:1 31409:1 31410:1 31411:1 31412:1 31413:1 31414:1 31415:1 31416:1 31417:1 31418:1 31419:1 86314:1 86316:1 86371:10.144895 86372:9.8097039 86373:10.045401 
389.7513802606229 3264.021760531552 3:1 18:1 68:1 226:1 227:1 289:1 778:1 836:1 1935:1 3340:1 5859:1 9006:1 10567:1 16389:1 24485:1 24932:1 27604:1 28172:1 31576:1 31577:1 31578:1 31579:1 31580:1 31581:1 31582:1 31583:1 31584:1 86308:1 86316:4 86371:6.4186558 86372:6.892423 86373:5.6889211 
0 1787.855702167661 15:1 18:1 68:1 286:1 299:1 318:1 328:1 493:1 641:1 832:1 2287:1 4864:1 5839:1 7412:1 7427:1 9181:1 9200:1 15758:1 17031:1 17039:1 17040:1 24113:1 31585:1 31586:1 31587:1 31588:1 31589:1 31590:1 31591:1 31592:1 31593:1 31594:1 31595:1 86308:2 86371:11.058775 86372:9.2498115 86373:11.691414 
0 2636.151003667263 126:1 393:1 1966:1 2345:1 2367:1 3026:1 4301:1 5516:1 5520:1 7433:1 12564:1 12747:1 22958:1 22988:1 31621:1 31622:1 31623:1 31624:1 31625:1 31626:1 31627:1 31628:1 86308:2 86371:4.6255372 86372:4.2876855 86373:6.0867773 
1524.378317736878 4423.667582613431 12:1 18:1 23:1 514:1 528:1 731:1 1363:1 1817:1 2589:1 2614:1 5586:1 5636:1 6150:1 6575:1 10432:1 10752:1 13103:1 13104:1 13113:1 13114:1 13177:1 22774:1 32022:1 32031:1 32052:1 32053:1 32054:1 32055:1 32056:1 32057:1 32058:1 32059:1 32060:1 32061:1 32062:1 32063:1 86308:5 86371:8.0325837 86372:5.4669889 86373:7.5004274 
0 1664.217972180702 18:1 68:1 942:1 943:1 986:1 1652:1 1653:1 1678:1 3308:1 3309:1 3428:1 3496:1 3497:1 3511:1 3512:1 4659:1 4660:1 4678:1 5029:1 5030:1 5035:1 6905:1 14275:1 14276:1 14425:1 19018:1 21629:1 32408:1 32409:1 32410:1 86371:3.0394174 86372:4.6990637 86373:2.2615189 
0 3115.500289453728 3:1 115:1 32980:1 32981:1 32982:1 86371:0.73029341 86372:1.7584851 86373:1.5112215 
5123.890309922474 6013.032258120004 18:1 68:1 887:1 1408:1 5147:1 14786:1 18233:1 33112:1 33113:1 33114:1 33115:1 33116:1 33117:1 33118:1 33119:1 33120:1 33121:1 33122:1 33123:1 33124:1 33125:1 33126:1 86308:1 86371:9.371044 86372:7.9435012 86373:6.6854548 
2468.741132697081 164.2309354773244 3:1 18:1 61:1 68:1 425:1 778:1 868:1 1050:1 1384:1 11780:1 26322:1 26325:1 26326:1 33226:1 33227:1 33228:1 33229:1 33230:1 33231:1 33232:1 33233:1 33234:1 33235:1 33236:1 86371:5.886165 86372:7.2123336 86373:3.9015014 
0 1506.540075867382 3:1 18:1 68:1 576:1 778:1 836:1 882:1 885:1 2330:1 2348:1 3066:1 3616:1 5664:1 8090:1 11902:1 23121:1 29570:1 33573:1 33574:1 33575:1 33576:1 33577:1 33578:1 33579:1 33580:1 33581:1 33582:1 33583:1 33584:1 86308:2 86316:1 86371:6.1602226 86372:6.4785323 86373:5.3612451 
0 668.1647927904198 114:1 169:1 207:1 286:1 520:1 619:1 2287:1 2618:1 2758:1 3053:1 8186:1 9195:1 20871:1 33808:1 33809:1 33810:1 33811:1 33812:1 33813:1 33814:1 33815:1 33816:1 33817:1 33818:1 33819:1 33820:1 33821:1 33822:1 33823:1 33824:1 33825:1 86308:6 86371:6.89241 86372:6.1099998 86373:7.9975902 
960.1573803275676 10779.16350747094 3:1 15:1 18:1 68:1 168:1 169:1 2818:1 4413:1 6553:1 9421:1 10992:1 28461:1 33826:1 33827:1 86371:3.2434677 86372:3.1639859 86373:3.5925464 
0 3772.42542224967 18:1 318:1 617:1 618:1 633:1 4892:1 6250:1 6264:1 7416:1 20313:1 26742:1 33858:1 33859:1 33860:1 33861:1 33862:1 86308:2 86371:3.4602859 86372:2.0753169 86373:5.4643972 
0 8995.668195715391 1588:1 9462:1 15378:1 33875:1 33876:1 33877:1 86371:1.357757 86372:1.5346037 86373:2.1076394 
0 29.43411438896722 3:1 5:1 219:1 286:1 288:1 290:1 299:1 822:1 824:1 1458:1 4094:1 5810:1 7217:1 9298:1 11168:1 12095:1 15923:1 19278:1 19736:1 20054:1 23646:1 32468:1 33895:1 33896:1 33897:1 33898:1 33899:1 33900:1 33901:1 33902:1 33903:1 33904:1 33905:1 86314:1 86316:1 86371:6.659671 86372:5.7494303 86373:6.5908987 
11016.14774277862 20797.9517441488 286:1 299:1 5999:1 14099:1 34025:1 34026:1 86371:4.140676 86372:2.5587496 86373:3.3005744 
0 100.8228631943086 952:1 953:1 996:1 1061:1 1062:1 1075:1 1090:1 1091:1 1110:1 1595:1 1596:1 1597:1 1598:1 1617:1 1618:1 1619:1 27899:1 27900:1 27913:1 30698:1 30699:1 30722:1 34169:1 34170:1 34171:1 34172:1 34173:1 34174:1 34175:1 34176:1 34177:1 34178:1 34179:1 34180:1 34181:1 86371:1.8028871 86372:5.6075141 86373:2.5895988 
3095.589791181485 18436.32977947664 1749:1 14937:1 86308:1 86371:0.71143617 86372:0.95124113 86373:1.3373227 
0 2604.756042751605 3:1 99:1 1188:1 1399:1 2510:1 4734:1 4834:1 5072:1 5716:1 6038:1 8486:1 34403:1 34404:1 34405:1 34406:1 34407:1 34408:1 34409:1 86308:3 86371:3.7511744 86372:4.0489514 86373:4.1998742 
0 795.7641676064919 18:1 68:1 789:1 790:1 809:1 1804:1 1805:1 1834:1 1844:1 2590:1 2591:1 2616:1 4213:1 4214:1 4230:1 4231:1 4425:1 17488:1 17489:1 17505:1 31682:1 34427:1 34428:1 34429:1 34430:1 86308:1 86371:3.4836554 86372:4.5077045 86373:3.0086401 
2961.665753099949 3713.798811090031 18:1 68:1 98:1 153:1 219:1 224:1 288:1 6407:1 6603:1 6619:1 6637:1 8374:1 12827:1 19209:1 25503:1 35192:1 35193:1 35194:1 35195:1 35196:1 35197:1 35198:1 86308:2 86314:2 86371:6.3103795 86372:4.5623521 86373:5.1272684 
0 1976.293720870132 167:1 836:1 1448:1 1540:1 3103:1 4188:1 6606:1 15901:1 17276:1 26130:1 27989:1 35632:1 35633:1 35634:1 35635:1 35636:1 35637:1 35638:1 35639:1 35640:1 35641:1 86308:2 86316:1 86371:4.1397341 86372:4.3280788 86373:4.532187 
0 1236.230178563213 3:1 18:1 59:1 68:1 293:1 778:1 1239:1 1253:1 1568:1 1588:1 1605:1 6610:1 34867:1 35807:1 35808:1 35809:1 35810:1 35811:1 35812:1 35813:1 35814:1 35815:1 86371:5.8186506 86372:5.863717 86373:5.3176324 
0 1939.96560945511 12:1 18:1 19:1 389:1 415:1 2149:1 3237:1 3243:1 4275:1 7477:1 7605:1 11677:1 12766:1 12787:1 17707:1 27192:1 31288:1 34891:1 35083:1 35938:1 35939:1 35940:1 35941:1 35942:1 35943:1 35944:1 35945:1 86308:4 86371:6.6204535 86372:5.1209208 86373:8.2586257 
3151.502106122464 2881.783886329294 18:1 68:1 171:1 576:1 5859:1 9956:1 13344:1 35946:1 35947:1 35948:1 35949:1 35950:1 86308:1 86371:2.8372157 86372:2.7903174 86373:2.3724669 
0 4246.502058462253 19:1 173:1 326:1 514:1 1799:1 6179:1 17730:1 32708:1 36299:1 36300:1 36301:1 36302:1 36303:1 36304:1 36305:1 36306:1 36307:1 36308:1 36309:1 86308:3 86371:4.3217083 86372:3.4912519 86373:5.1870398 
0 3679.650551311001 3:1 293:1 1451:1 1463:1 5999:1 18173:1 36345:1 36346:1 36347:1 86308:1 86371:1.5930297 86372:1.7353679 86373:2.6716024 
657.6355651258142 261.2219668971435 5:1 152:1 425:1 555:1 1019:1 4603:1 10741:1 13476:1 13494:1 13495:1 36487:1 36488:1 36489:1 36490:1 36491:1 36492:1 36493:1 36494:1 36495:1 86371:3.7871237 86372:5.1608575 86373:3.0520188 
0 1917.247566213279 18:1 60:1 68:1 98:1 99:1 111:1 156:1 226:1 293:1 593:1 1022:1 1239:1 1399:1 1901:1 2510:1 3494:1 5103:1 5773:1 7208:1 12953:1 29779:1 36834:1 36835:1 36836:1 36837:1 36838:1 36839:1 36840:1 36841:1 36842:1 86371:8.3819258 86372:7.8669509 86373:6.7511233 
0 1979.242612318437 18:1 68:1 98:1 160:1 226:1 3107:1 3334:1 10168:1 12826:1 21558:1 26173:1 36843:1 36844:1 36845:1 36846:1 36847:1 36848:1 36849:1 36850:1 36851:1 36852:1 86371:5.6008907 86372:6.0134587 86373:5.3856507 
0 1020.434506307015 3:1 15:1 18:1 91:1 160:1 427:1 556:1 576:1 642:1 2818:1 2911:1 3045:1 4188:1 5664:1 6010:1 7465:1 7623:1 8306:1 8827:1 9421:1 9879:1 15726:1 25860:1 31173:1 33265:1 33272:1 37145:1 37146:1 37147:1 37148:1 37149:1 37150:1 37151:1 37152:1 37153:1 37154:1 37155:1 37156:1 37157:1 86308:1 86371:7.6828327 86372:8.1695147 86373:7.1476527 
0 2402.974253282024 271:1 286:1 299:1 15295:1 37242:1 37243:1 37244:1 86371:2.9126924 86372:2.2414057 86373:2.8459019 
0 3547.062198924721 3:1 226:1 482:1 2818:1 4916:1 9421:1 37312:1 37313:1 37314:1 86371:1.5437275 86372:2.0699078 86373:2.3863648 
0 75345.72350632478 3:1 5:1 18:1 98:1 151:1 160:1 226:1 620:1 734:1 1451:1 1462:1 1463:1 2249:1 2518:1 2519:1 2527:1 2818:1 2829:1 4924:1 8306:1 8369:1 20116:1 37555:1 37556:1 37557:1 37558:1 37559:1 37560:1 37561:1 86308:2 86371:5.4511467 86372:5.3739052 86373:6.1749481 
0 2767.952801612671 18:1 68:1 151:1 153:1 227:1 289:1 290:1 307:1 554:1 826:1 1168:1 1428:1 2318:1 3067:1 3517:1 4045:1 4188:1 7217:1 9255:1 10959:1 11962:1 14281:1 15659:1 23064:1 34358:1 34646:1 37562:1 37563:1 37564:1 37565:1 37566:1 37567:1 37568:1 37569:1 37570:1 37571:1 37572:1 37573:1 37574:1 86308:2 86371:8.0196122 86372:8.4898404 86373:7.4905474 
115.9682712299509 0 18:1 68:1 93:1 1168:1 1179:1 3517:1 4094:1 18256:1 19473:1 23128:1 30071:1 37623:1 37624:1 37625:1 37626:1 37627:1 37628:1 37629:1 37630:1 86371:6.5322349 86372:7.8479226 86373:4.6198425 
0 293.1413636847205 15:1 821:1 885:1 1540:1 3070:1 3304:1 7549:1 22793:1 36037:1 37929:1 37930:1 37931:1 37932:1 37933:1 37934:1 37935:1 37936:1 37937:1 37938:1 37939:1 86371:4.2520695 86372:5.4496403 86373:4.2982902 
0 40.44233927186076 3:1 5:1 151:1 152:1 157:1 168:1 576:1 1427:1 3306:1 3422:1 4413:1 8396:1 9340:1 9346:1 12093:1 13405:1 14133:1 14475:1 32922:1 34683:1 37987:1 37988:1 37989:1 37990:1 37991:1 37992:1 37993:1 37994:1 37995:1 37996:1 37997:1 37998:1 37999:1 86371:6.0631752 86372:8.0848795 86373:4.8519453 
508.3308088100097 1169.634416152932 18:1 68:1 942:1 943:1 986:1 1589:1 1590:1 1597:1 1598:1 1608:1 1619:1 2398:1 2399:1 2447:1 3509:1 4656:1 5251:1 5415:1 5416:1 5453:1 6220:1 6221:1 6231:1 6232:1 7103:1 7104:1 7129:1 9122:1 9153:1 10253:1 10254:1 10269:1 14429:1 21365:1 21444:1 22169:1 25062:1 25063:1 25104:1 32311:1 33690:1 38016:1 38017:1 38018:1 38019:1 38020:1 38021:1 38022:1 38023:1 38024:1 38025:1 86308:2 86371:6.8568998 86372:8.7941652 86373:4.3489351 
0 2109.231726395932 18:1 121:1 169:1 352:1 1739:1 2257:1 3130:1 3144:1 3327:1 3559:1 5601:1 5636:1 10601:1 10608:1 17167:1 26594:1 38036:1 38037:1 38038:1 38039:1 38040:1 38041:1 38042:1 38043:1 38044:1 38045:1 38046:1 38047:1 38048:1 38049:1 38050:1 38051:1 86308:7 86371:7.5739328 86372:5.9951319 86373:8.4309353 
0 1774.544907935697 18:1 68:1 153:1 161:1 227:1 462:1 3494:1 7498:1 9175:1 21140:1 26163:1 38186:1 38187:1 38188:1 38189:1 86308:1 86371:3.4142621 86372:3.9494189 86373:3.6363189 
0 8114.440468471397 3:1 18:1 68:1 154:1 160:1 164:1 2818:1 3115:1 3720:1 3891:1 3896:1 8306:1 37560:1 37561:1 38213:1 86371:3.7099422 86372:3.1485355 86373:4.1415223 
585.9218306149405 4321.929129597366 18:1 68:1 226:1 836:1 7807:1 8786:1 19208:1 36299:1 38377:1 38378:1 38379:1 38380:1 38381:1 38382:1 38383:1 38384:1 38385:1 38386:1 86308:1 86316:1 86371:4.4601896 86372:4.2786477 86373:4.2611627 
4373.003885336551 5283.651875762554 18:1 68:1 7104:1 21911:1 21919:1 38458:1 86308:4 86371:3.2234488 86372:2.733332 86373:3.0432193 
0 340.199939420871 15:1 18:1 119:1 121:1 164:1 286:1 298:1 316:1 318:1 330:1 482:1 742:1 1527:1 2102:1 4311:1 8028:1 10351:1 12218:1 15050:1 20169:1 28429:1 32022:1 32031:1 38488:1 38489:1 38490:1 38491:1 38492:1 38493:1 38494:1 38495:1 38496:1 38497:1 38498:1 38499:1 86308:3 86371:8.1054211 86372:7.0220015 86373:8.8725774 
3979.887740854433 1353.346299366174 18:1 68:1 3494:1 5687:1 6602:1 8201:1 8613:1 10672:1 13417:1 30580:1 38776:1 38777:1 38778:1 38779:1 38780:1 38781:1 38782:1 38783:1 86308:4 86371:5.061997 86372:4.3241998 86373:3.6138032 
0 588.0670111542992 18:1 25:1 49:1 50:1 971:1 1340:1 7566:1 13397:1 22958:1 29181:1 29339:1 38803:1 38804:1 38805:1 38806:1 38807:1 38808:1 38809:1 86308:1 86314:1 86371:4.9879716 86372:4.1553018 86373:4.8567266 
997.7019872581183 802.9130412864846 18:1 68:1 457:1 836:1 1458:1 2504:1 3104:1 7234:1 10292:1 13893:1 34112:1 35826:1 38921:1 38922:1 38923:1 38924:1 38925:1 38926:1 86308:1 86316:2 86371:6.2771157 86372:6.4407316 86373:5.2821528 
0 83.99555090686812 1652:1 1653:1 1678:1 4114:1 4115:1 4167:1 7363:1 7364:1 7380:1 38973:1 38974:1 38975:1 38976:1 38977:1 38978:1 38979:1 38980:1 38981:1 38982:1 38983:1 38984:1 38985:1 38986:1 86371:1.7595103 86372:3.7902534 86373:1.4502363 
1239.228591016162 3153.332229578563 165:1 219:1 826:1 836:1 1408:1 5150:1 19673:1 35051:1 39005:1 39006:1 39007:1 39008:1 86308:2 86314:1 86316:1 86371:2.6143702 86372:2.4820205 86373:2.9036093 
0 519.8326449854745 18:1 68:1 98:1 458:1 3070:1 3095:1 3103:1 3289:1 4734:1 5046:1 5599:1 8347:1 19070:1 25213:1 39009:1 39010:1 39011:1 39012:1 39013:1 39014:1 39015:1 39016:1 39017:1 86308:2 86314:1 86371:5.4301476 86372:5.249514 86373:5.3203385 
0 516.7353055632991 787:1 788:1 807:1 942:1 943:1 986:1 1654:1 1655:1 1681:1 2398:1 2399:1 2447:1 3157:1 3158:1 3180:1 7659:1 7660:1 7679:1 25635:1 25636:1 25642:1 25643:1 39018:1 39019:1 39020:1 39021:1 39022:1 86308:2 86371:1.8764881 86372:4.3598214 86373:1.7636905 
0 249.22877318925 15:1 95:1 164:1 227:1 836:1 942:1 943:1 986:1 1589:1 1590:1 1608:1 1786:1 1787:1 1794:1 2227:1 3334:1 5629:1 6194:1 8125:1 9875:1 15659:1 18556:1 21362:1 21437:1 24904:1 32106:1 33699:1 34554:1 39063:1 39064:1 39065:1 39066:1 39067:1 39068:1 39069:1 39070:1 39071:1 39072:1 86308:1 86316:1 86371:4.8759646 86372:7.1890032 86373:4.9350322 
0 6505.766895728283 96:1 1022:1 18702:1 36938:1 39328:1 39329:1 39330:1 39331:1 39332:1 39333:1 86371:2.1115158 86372:2.1785189 86373:2.7099653 
0 6743.177477025376 3:1 91:1 169:1 207:1 455:1 514:1 1634:1 2561:1 7736:1 8215:1 8217:1 10303:1 16701:1 34453:1 39402:1 39403:1 39404:1 39405:1 86315:1 86371:2.4697218 86372:3.6191598 86373:4.9111184 
0 4835.222031352672 3:1 5:1 151:1 1451:1 20638:1 20642:1 20644:1 32922:1 39413:1 86371:1.443245 86372:2.4110673 86373:2.1456877 
280.1229175622867 0 59:1 99:1 163:1 219:1 836:1 4030:1 9178:1 10983:1 18225:1 19673:1 39773:1 39774:1 39775:1 39776:1 39777:1 39778:1 39779:1 86314:1 86316:1 86371:3.154373 86372:3.6497878 86373:3.1958392 
0 3470.241021332676 169:1 376:1 1992:1 2102:1 2860:1 3237:1 3538:1 4301:1 10547:1 11440:1 11754:1 13661:1 16822:1 17164:1 17726:1 29488:1 30100:1 40015:1 40016:1 40017:1 40018:1 40019:1 40020:1 40021:1 40022:1 40023:1 86308:2 86371:5.8414036 86372:4.9277428 86373:8.2308536 
0 176.4632487619843 15:1 18:1 24:1 68:1 1363:1 1651:1 2287:1 2590:1 2591:1 2616:1 3130:1 3144:1 3558:1 4557:1 5143:1 5603:1 9235:1 9236:1 9241:1 9242:1 9246:1 9252:1 10335:1 10336:1 10386:1 11455:1 11465:1 16970:1 26556:1 26557:1 26573:1 40151:1 40152:1 40153:1 40154:1 40155:1 40156:1 40157:1 40158:1 40159:1 40160:1 40161:1 40162:1 40163:1 40164:1 40165:1 40166:1 40167:1 40168:1 40169:1 40170:1 40171:1 86308:5 86371:8.3643449 86372:7.8494178 86373:8.7862372 
0 612.3829863954645 15:1 18:1 68:1 164:1 1137:1 1220:1 1341:1 1354:1 1894:1 5601:1 6148:1 6822:1 7570:1 9921:1 10072:1 10601:1 10608:1 13223:1 15993:1 36694:1 40332:1 40333:1 40334:1 40335:1 40336:1 40337:1 40338:1 40339:1 40340:1 40341:1 40342:1 40343:1 40344:1 40345:1 40346:1 40347:1 40348:1 40349:1 40350:1 86308:5 86371:8.5946292 86372:7.5882176 86373:10.817153 
0 276.1963828106506 3:1 1020:1 1453:1 27498:1 40359:1 40360:1 40361:1 86371:0.85220547 86372:1.8776798 86373:2.2701148 
0 1945.459305724477 99:1 152:1 295:1 877:1 4701:1 5747:1 8308:1 40502:1 40503:1 40504:1 40505:1 86371:1.6370331 86372:2.8154316 86373:2.5475353 
0 1780.753056052976 18:1 68:1 1061:1 1062:1 1075:1 1088:1 1089:1 1108:1 1597:1 1598:1 1619:1 1652:1 1653:1 1678:1 1786:1 1787:1 1794:1 2394:1 2395:1 2402:1 2403:1 2443:1 2451:1 3314:1 3315:1 3435:1 3755:1 3756:1 3818:1 12159:1 12160:1 12180:1 12181:1 28746:1 36632:1 39423:1 40534:1 40535:1 40536:1 40537:1 40538:1 40539:1 40540:1 40541:1 40542:1 40543:1 86371:3.3313017 86372:7.2993561 86373:3.3693422 
521.1380282804397 0 18:1 68:1 472:1 1458:1 1475:1 2189:1 2519:1 2868:1 3327:1 3707:1 15949:1 16656:1 16772:1 16776:1 28422:1 32102:1 38914:1 39436:1 40720:1 40721:1 40722:1 40723:1 40724:1 40725:1 40726:1 40727:1 40728:1 40729:1 40730:1 40731:1 40732:1 40733:1 86308:3 86316:1 86371:8.0813579 86372:7.5186793 86373:6.3999627 
0 566.0393276344405 6:1 494:1 662:1 2191:1 3053:1 3058:1 5069:1 5080:1 8514:1 11071:1 13563:1 13570:1 15690:1 15711:1 25412:1 28443:1 30071:1 40753:1 40754:1 40755:1 40756:1 40757:1 86308:3 86315:1 86371:4.9194004 86372:4.7646855 86373:6.3159141 
0 2062.877502262669 3:1 59:1 168:1 231:1 1019:1 1605:1 3279:1 6688:1 8477:1 9749:1 22538:1 28447:1 29436:1 41038:1 41039:1 41040:1 41041:1 41042:1 41043:1 41044:1 86371:3.9810654 86372:4.558911 86373:4.4600236 
4260.735277992142 10914.99024089415 665:1 2900:1 2914:1 4030:1 8235:1 10741:1 17951:1 30264:1 41112:1 41113:1 86308:1 86371:2.3910478 86372:1.9826123 86373:2.6263399 
0 1294.445463723992 3:1 18:1 60:1 67:1 68:1 126:1 227:1 576:1 1628:1 2901:1 4030:1 4682:1 8319:1 8600:1 9283:1 12091:1 12104:1 16001:1 16772:1 20720:1 33629:1 36897:1 38119:1 41152:1 41153:1 41154:1 41155:1 41156:1 41157:1 41158:1 41159:1 41160:1 41161:1 41162:1 41163:1 41164:1 86308:2 86371:7.5230684 86372:8.3745456 86373:8.102386 
0 912.5239264436623 3:1 18:1 68:1 160:1 219:1 2021:1 2151:1 8374:1 21088:1 26285:1 37561:1 41255:1 41256:1 41257:1 41258:1 86314:1 86371:3.7084809 86372:3.5411764 86373:3.7503427 
0 4327.540988417966 19:1 114:1 1312:1 1902:1 8283:1 8538:1 12116:1 41490:1 41491:1 41492:1 41493:1 41494:1 41495:1 41496:1 41497:1 41498:1 86308:1 86371:3.6402904 86372:3.1261069 86373:4.2336027 
0 1157.280172603221 153:1 160:1 167:1 226:1 288:1 295:1 595:1 1414:1 10852:1 10857:1 18884:1 25631:1 41645:1 41646:1 41647:1 86371:2.3736743 86372:3.4160794 86373:3.2102463 
1671.581321315966 2864.144710233317 60:1 61:1 286:1 299:1 1399:1 3334:1 4030:1 6002:1 9232:1 14176:1 14178:1 14179:1 14180:1 14181:1 14184:1 14185:1 14186:1 14187:1 41767:1 86308:1 86371:6.8647994 86372:6.2342352 86373:4.9009654 
0 4519.024910858651 3:1 18:1 61:1 68:1 462:1 576:1 590:1 617:1 778:1 1022:1 1025:1 1035:1 4538:1 4768:1 5693:1 11700:1 33806:1 41935:1 41936:1 41937:1 41938:1 41939:1 41940:1 41941:1 86308:1 86371:5.4993596 86372:5.2017155 86373:5.2989249 
2195.673366222629 1076.47700002858 263:1 286:1 2894:1 13403:1 15527:1 24837:1 26634:1 41980:1 41981:1 41982:1 41983:1 41984:1 41985:1 41986:1 86308:2 86371:3.3625278 86372:2.9612492 86373:2.676223 
0 2134.977188802356 28:1 61:1 77:1 152:1 164:1 227:1 369:1 1142:1 1449:1 2014:1 2519:1 2528:1 2807:1 4189:1 5149:1 5599:1 5629:1 5949:1 20802:1 22149:1 23578:1 37059:1 37060:1 42054:1 42055:1 42056:1 42057:1 42058:1 42059:1 42060:1 42061:1 42062:1 42063:1 42064:1 42065:1 42066:1 42067:1 42068:1 42069:1 86308:4 86316:1 86371:8.5171758 86372:8.2065933 86373:9.2762309 
3618.798946641824 4474.544049365698 3:1 15:1 18:1 68:1 156:1 286:1 295:1 298:1 299:1 2937:1 11357:1 16953:1 22146:1 27569:1 42367:1 42368:1 42369:1 42370:1 42371:1 42372:1 42373:1 42374:1 86308:2 86371:5.7296508 86372:3.9616828 86373:4.3086664 
0 225.8490315934896 3:1 168:1 227:1 427:1 3517:1 5532:1 7620:1 12363:1 18756:1 29201:1 42409:1 42410:1 42411:1 42412:1 42413:1 42414:1 42415:1 86308:2 86371:2.7212531 86372:4.2667748 86373:3.0119721 
0 8372.795114765018 18:1 68:1 98:1 160:1 226:1 295:1 661:1 1414:1 3515:1 3516:1 7207:1 20116:1 40556:1 42923:1 42924:1 42925:1 86308:1 86371:3.747455 86372:3.4032548 86373:3.8492903 
2542.974959730045 5427.816505191224 18:1 288:1 305:1 763:1 868:1 1488:1 5638:1 9979:1 12417:1 38770:1 43051:1 43052:1 43053:1 86371:3.19507 86372:2.7821104 86373:3.0228197 
2855.362552380591 2503.196108020814 11943:1 43195:1 43196:1 43197:1 43198:1 86371:1.0277778 86372:1.8611111 86373:1.1111111 
698.0691385542474 3297.80941493605 77:1 151:1 380:1 429:1 576:1 1540:1 2535:1 2901:1 3096:1 3288:1 4125:1 6070:1 15918:1 41129:1 41131:1 41132:1 43552:1 43553:1 43554:1 43555:1 43556:1 43557:1 43558:1 43559:1 43560:1 86371:5.0856216 86372:5.7485092 86373:4.1658692 
0 1903.354136625009 18:1 68:1 576:1 956:1 957:1 964:1 965:1 1000:1 1008:1 1061:1 1062:1 1075:1 1384:1 1457:1 1652:1 1653:1 1678:1 3357:1 4188:1 8388:1 11488:1 12101:1 12451:1 21708:1 36927:1 37455:1 37464:1 37465:1 43711:1 43712:1 43713:1 43714:1 43715:1 43716:1 43717:1 43718:1 43719:1 43720:1 43721:1 86371:8.1338308 86372:11.12934 86373:6.7368293 
1066.984681651864 4250.747522603524 3:1 18:1 68:1 98:1 288:1 836:1 3298:1 3851:1 3891:1 4091:1 8275:1 9493:1 10567:1 10735:1 11312:1 15659:1 41389:1 43315:1 43383:1 43385:1 43722:1 43723:1 43724:1 43725:1 43726:1 43727:1 43728:1 43729:1 43730:1 43731:1 43732:1 86316:1 86371:9.2109073 86372:9.4669749 86373:7.3221179 
531.0622320644356 1598.20581568033 18:1 620:1 1787:1 3999:1 4710:1 5638:1 11944:1 11945:1 11955:1 19375:1 26136:1 26137:1 26155:1 26667:1 26677:1 31558:1 43853:1 43854:1 43855:1 43856:1 43857:1 43858:1 43859:1 43860:1 43861:1 43862:1 86308:2 86371:4.2832763 86372:3.7551664 86373:3.9615572 
6602.021788752227 13824.06355841662 8081:1 43953:1 43954:1 86371:0.80555556 86372:1.0277778 86373:1.1666667 
3306.085117773123 6516.48236870477 18:1 68:1 98:1 231:1 3025:1 3995:1 7151:1 25318:1 43955:1 43956:1 43957:1 43958:1 86314:1 86371:3.6048555 86372:3.0662846 86373:3.32886 
2207.537370231646 6114.705517930834 164:1 288:1 2222:1 4091:1 4094:1 4129:1 6109:1 8275:1 44095:1 44096:1 44097:1 44098:1 44099:1 44100:1 86371:3.1500815 86372:2.360635 86373:3.4892835 
0 20559.31786675795 18:1 68:1 98:1 166:1 168:1 226:1 234:1 326:1 576:1 648:1 2505:1 3969:1 3970:1 3971:1 3972:1 3973:1 3974:1 3981:1 3982:1 3983:1 3984:1 3985:1 3986:1 3987:1 3988:1 3989:1 3990:1 3991:1 3992:1 3993:1 3994:1 3995:1 3996:1 3997:1 3998:1 15379:1 15734:1 44134:1 86316:1 86371:8.620286 86372:9.3286284 86373:11.051086 
1355.512499806061 5594.927300875269 18:1 68:1 259:1 1292:1 1748:1 3237:1 5051:1 12939:1 14717:1 39941:1 44430:1 44431:1 44432:1 44433:1 44434:1 44435:1 44436:1 86308:3 86310:0.08953168 86312:0.08953168 86371:4.9741114 86372:2.8571037 86373:5.1687849 
2220.238694915025 0 18:1 62:1 68:1 151:1 219:1 576:1 836:1 861:1 1901:1 2242:1 2248:1 2249:1 2526:1 3249:1 7208:1 7621:1 17850:1 19189:1 24446:1 24723:1 24932:1 37066:1 43953:1 44685:1 44686:1 44687:1 44688:1 44689:1 44690:1 44691:1 44692:1 44693:1 86308:2 86314:1 86316:1 86371:13.570558 86372:13.038041 86373:9.391401 
3205.540731480439 4916.647616809706 152:1 828:1 4681:1 9819:1 44726:1 44727:1 44728:1 44729:1 44730:1 86371:1.7576849 86372:2.4398892 86373:1.8024259 
0 2104.559867672816 18:1 161:1 192:1 227:1 942:1 943:1 986:1 1321:1 1322:1 1332:1 1589:1 1590:1 1608:1 2665:1 3025:1 3254:1 3262:1 3509:1 4789:1 5443:1 11149:1 11150:1 11153:1 11167:1 14674:1 14675:1 14676:1 14677:1 14678:1 14679:1 14680:1 14681:1 14682:1 14683:1 14684:1 14685:1 14686:1 14687:1 14688:1 86308:1 86371:4.8394691 86372:6.9361748 86373:4.2243561 
7994.715687529198 10721.47515968909 18:1 68:1 226:1 227:1 5695:1 8347:1 8351:1 8784:1 9253:1 28551:1 45248:1 45249:1 45250:1 45251:1 86308:1 86314:1 86371:3.7127887 86372:2.2027445 86373:3.0844668 
0 2954.556336153315 20:1 172:1 528:1 2791:1 5603:1 5620:1 14812:1 32831:1 33184:1 34892:1 34893:1 34902:1 45668:1 45669:1 45670:1 45671:1 45672:1 45673:1 45674:1 45675:1 86308:3 86371:4.6019349 86372:3.4612057 86373:4.9368593 
0 273.1440935802333 12:1 18:1 114:1 285:1 286:1 662:1 4242:1 5099:1 6336:1 7901:1 7920:1 8076:1 9926:1 10639:1 10831:1 11111:1 12225:1 12239:1 20142:1 22538:1 23537:1 23539:1 24505:1 45676:1 45677:1 45678:1 45679:1 45680:1 45681:1 45682:1 45683:1 45684:1 45685:1 45686:1 45687:1 45688:1 45689:1 45690:1 45691:1 45692:1 86308:6 86371:9.5037922 86372:7.490924 86373:9.0052838 
2471.773745717388 13696.89543833066 151:1 287:1 288:1 821:1 1022:1 6691:1 24280:1 45718:1 45719:1 45720:1 86371:2.4141681 86372:1.8622558 86373:2.7235762 
1361.401397883722 4445.941321341528 18:1 25:1 50:1 68:1 731:1 789:1 790:1 809:1 888:1 1340:1 1353:1 2184:1 2185:1 2197:1 2198:1 2395:1 3237:1 4656:1 5100:1 7248:1 8193:1 19300:1 19318:1 22925:1 31113:1 31114:1 31117:1 31118:1 42090:1 42105:1 45770:1 45771:1 45772:1 45773:1 45774:1 45775:1 45776:1 45777:1 45778:1 45779:1 45780:1 45781:1 45782:1 45783:1 45784:1 45785:1 45786:1 45787:1 45788:1 86308:5 86371:9.3532873 86372:6.6752948 86373:7.9714178 
0 1094.745935611789 90:1 153:1 161:1 598:1 1628:1 5550:1 6407:1 29192:1 45858:1 45859:1 45860:1 45861:1 86371:2.1435862 86372:3.2376077 86373:2.6188061 
0 188.8249244004852 18:1 68:1 161:1 1626:1 1628:1 1637:1 3067:1 6183:1 11029:1 42492:1 42501:1 46375:1 46376:1 46377:1 46378:1 46379:1 46380:1 46381:1 46382:1 86371:3.5618754 86372:4.2936878 86373:4.1444368 
3910.256392022749 1315.240778864392 18:1 60:1 68:1 286:1 299:1 1022:1 1901:1 3118:1 7208:1 10956:1 11664:1 32049:1 46673:1 46674:1 46675:1 46676:1 46677:1 86371:7.2473371 86372:5.6542148 86373:5.0984481 
0 3235.534399456974 3:1 18:1 68:1 157:1 193:1 227:1 598:1 882:1 4188:1 7736:1 10056:1 12104:1 21148:1 46678:1 46679:1 46680:1 46681:1 46682:1 86308:2 86314:1 86371:6.3880984 86372:5.8807928 86373:5.7311088 
0 282.9113325325911 3:1 169:1 227:1 431:1 2561:1 6652:1 18877:1 18878:1 19173:1 41777:1 46797:1 46798:1 46799:1 46800:1 46801:1 46802:1 86308:3 86371:2.1832766 86372:3.7804435 86373:4.0362799 
0 2840.064737463555 3:1 5:1 18:1 68:1 115:1 778:1 1628:1 6045:1 8564:1 13487:1 21690:1 33869:1 47079:1 47080:1 47081:1 47082:1 47083:1 47084:1 86371:3.8468773 86372:4.2440854 86373:3.9090373 
0 22.53742266840132 19:1 474:1 1340:1 1353:1 1354:1 1749:1 3707:1 4275:1 4301:1 6806:1 7697:1 8632:1 17425:1 18281:1 19957:1 33788:1 33792:1 38475:1 47114:1 47115:1 47116:1 47117:1 47118:1 47119:1 47120:1 47121:1 47122:1 47123:1 47124:1 47125:1 86308:2 86371:6.8234347 86372:6.684004 86373:7.4925614 
0 3746.540096408665 942:1 943:1 986:1 1321:1 1322:1 1332:1 1597:1 1598:1 1619:1 1652:1 1653:1 1678:1 4555:1 4651:1 4652:1 4668:1 12188:1 15421:1 15422:1 15438:1 47312:1 47313:1 47314:1 86371:1.1953073 86372:4.092079 86373:1.7126137 
1425.097781006074 10723.88154376495 3:1 15:1 1098:1 1099:1 1118:1 1597:1 1598:1 1619:1 4465:1 4466:1 4487:1 21577:1 24056:1 47507:1 47508:1 47509:1 47510:1 86371:1.9507557 86372:2.8377913 86373:2.211453 
0 5586.948069828703 61:1 3070:1 9751:1 44281:1 47511:1 47512:1 47513:1 86371:1.161705 86372:1.906635 86373:1.93166 
0 25005.62629375239 18:1 68:1 640:1 11664:1 25228:1 25235:1 47536:1 86371:6.775154 86372:6.0813171 86373:6.143529 
0 72.6319640009354 15:1 18:1 520:1 620:1 763:1 1872:1 1873:1 1944:1 2242:1 3134:1 5747:1 6336:1 6424:1 6736:1 7080:1 7412:1 8442:1 8948:1 9671:1 10351:1 10403:1 13593:1 13594:1 19569:1 20671:1 20684:1 23746:1 24285:1 26730:1 27335:1 29236:1 40185:1 43572:1 47883:1 47884:1 47885:1 47886:1 47887:1 47888:1 47889:1 47890:1 47891:1 47892:1 47893:1 47894:1 47895:1 47896:1 47897:1 47898:1 47899:1 47900:1 47901:1 47902:1 47903:1 47904:1 47905:1 47906:1 47907:1 47908:1 47909:1 47910:1 47911:1 47912:1 47913:1 86308:9 86371:14.890113 86372:13.915164 86373:15.194722 
1772.758417840476 3901.731584088094 18:1 49:1 68:1 286:1 1749:1 1757:1 1864:1 3245:1 4892:1 5321:1 7206:1 7566:1 9076:1 10355:1 14812:1 14820:1 14821:1 15063:1 15949:1 17642:1 20873:1 23029:1 24267:1 33858:1 40653:1 46858:1 48136:1 48137:1 48138:1 48139:1 48140:1 48141:1 48142:1 48143:1 48144:1 48145:1 48146:1 86308:2 86371:11.017361 86372:7.730429 86373:9.2522095 
0 922.3941742411805 3:1 5:1 18:1 68:1 77:1 226:1 230:1 243:1 558:1 572:1 651:1 778:1 1025:1 1035:1 1403:1 2013:1 2064:1 3970:1 4022:1 4072:1 5475:1 14134:1 24368:1 24369:1 42376:1 48306:1 48307:1 48308:1 48309:1 48310:1 48311:1 48312:1 48313:1 48314:1 48315:1 48316:1 48317:1 48318:1 48319:1 86308:1 86371:8.856585 86372:9.2701123 86373:7.8733028 
300000 3884.292511968731 3:1 18:1 61:1 68:1 99:1 151:1 152:1 157:1 457:1 558:1 610:1 1427:1 2324:1 4701:1 6002:1 7842:1 10315:1 11206:1 11207:1 11208:1 11209:1 11210:1 11211:1 11212:1 11213:1 11214:1 11215:1 11216:1 11217:1 11218:1 11219:1 11220:1 11221:1 11222:1 11223:1 11224:1 86308:3 86371:8.4667507 86372:7.6404698 86373:6.8927795 
0 3498.514404950111 115:1 3610:1 11758:1 30323:1 48879:1 48880:1 86371:1.5873163 86372:2.2018181 86373:2.2108656 
869.259410063024 752.6881195163904 3:1 18:1 68:1 77:1 90:1 98:1 166:1 226:1 288:1 778:1 1481:1 1503:1 1580:1 2223:1 7611:1 7953:1 8353:1 8403:1 10943:1 19572:1 20116:1 24920:1 24937:1 34570:1 48892:1 48893:1 48894:1 48895:1 48896:1 48897:1 48898:1 48899:1 48900:1 48901:1 48902:1 48903:1 48904:1 48905:1 48906:1 48907:1 48908:1 48909:1 48910:1 86308:2 86371:8.8864198 86372:9.757923 86373:6.3556572 
0 1670.266939842151 3:1 18:1 68:1 95:1 98:1 153:1 168:1 227:1 778:1 821:1 1142:1 1385:1 1500:1 1632:1 2221:1 3087:1 3404:1 3995:1 5529:1 12506:1 15064:1 19516:1 42451:1 43636:1 48911:1 48912:1 48913:1 48914:1 48915:1 48916:1 48917:1 48918:1 48919:1 48920:1 48921:1 48922:1 48923:1 86371:9.150509 86372:10.017598 86373:7.8318928 
56.12743321745692 771.0621083791361 18:1 91:1 98:1 227:1 1431:1 1540:1 2021:1 3382:1 6573:1 9462:1 11233:1 15020:1 17521:1 18350:1 19226:1 19237:1 19238:1 24926:1 49001:1 49002:1 49003:1 49004:1 49005:1 49006:1 49007:1 49008:1 49009:1 49010:1 49011:1 49012:1 49013:1 49014:1 49015:1 86308:2 86371:6.6144077 86372:6.9267444 86373:5.458848 
5917.566763845651 12150.76098901098 91:1 288:1 576:1 642:1 14078:1 14083:1 22488:1 29602:1 49022:1 49023:1 86371:2.5371022 86372:2.2588291 86373:2.2040688 
0 300000 942:1 943:1 986:1 2398:1 2399:1 2447:1 2665:1 6855:1 6856:1 6868:1 6898:1 6904:1 12456:1 12469:1 12640:1 12641:1 12642:1 12643:1 12644:1 12645:1 12646:1 12647:1 12648:1 86371:1.3928571 86372:3.4357143 86373:2.1714286 
0 516.3731970986202 15:1 18:1 665:1 1254:1 1261:1 2622:1 2755:1 3495:1 3517:1 6652:1 47279:1 49407:1 49408:1 49409:1 49410:1 49411:1 49412:1 49413:1 49414:1 49415:1 49416:1 49417:1 49418:1 86308:1 86371:4.3980073 86372:5.0101089 86373:4.5918838 
0 295640.9092269425 938:1 939:1 942:1 943:1 982:1 986:1 1786:1 1787:1 1794:1 2408:1 2409:1 2460:1 6967:1 6968:1 6979:1 9554:1 9555:1 9556:1 9557:1 9558:1 9559:1 9560:1 9561:1 9562:1 9563:1 9564:1 9565:1 9566:1 9567:1 9568:1 9569:1 9570:1 9571:1 9572:1 9573:1 9574:1 9575:1 9576:1 9577:1 9578:1 9579:1 9580:1 9581:1 9582:1 9583:1 9584:1 9585:1 9586:1 86308:2 86371:2.5080207 86372:7.2014421 86373:4.2905372 
0 143.8441490038356 173:1 288:1 3055:1 4022:1 4023:1 4033:1 6736:1 11731:1 26446:1 28915:1 32461:1 49448:1 49449:1 49450:1 49451:1 49452:1 86308:2 86371:3.8044975 86372:3.4953162 86373:3.7001863 
0 3351.401294145931 19:1 1896:1 2622:1 4275:1 5215:1 7654:1 7671:1 14035:1 20242:1 21834:1 47885:1 49457:1 49458:1 49459:1 49460:1 49461:1 49462:1 49463:1 49464:1 49465:1 49466:1 49467:1 86308:2 86371:5.3293641 86372:4.5941619 86373:6.076474 
1076.865894887497 6560.902552100848 3:1 91:1 1385:1 1392:1 1632:1 2221:1 3282:1 42967:1 42974:1 49663:1 49664:1 86371:2.1607717 86372:2.3944434 86373:2.4447849 
0 300000 763:1 2257:1 4710:1 16504:1 18461:1 23434:1 23437:1 23438:1 23441:1 23442:1 38610:1 49774:1 49775:1 49776:1 49777:1 86308:1 86371:3.6331108 86372:3.16352 86373:5.2033692 
0 483.0255276508252 5:1 15:1 18:1 61:1 68:1 91:1 166:1 226:1 238:1 2818:1 2825:1 4022:1 4023:1 4033:1 5993:1 7498:1 10943:1 17984:1 23186:1 24920:1 49941:1 49942:1 49943:1 49944:1 49945:1 49946:1 49947:1 49948:1 49949:1 86308:1 86371:6.001747 86372:7.0026486 86373:5.9956045 
0 94214.09663432858 18:1 68:1 93:1 227:1 4024:1 11225:1 20802:1 48375:1 48376:1 48377:1 48378:1 48379:1 48380:1 48381:1 48382:1 86308:1 86371:3.3663418 86372:4.0054376 86373:4.6282206 
0 4713.521543120468 91:1 226:1 238:1 1455:1 1457:1 1571:1 4728:1 8084:1 8093:1 9178:1 12852:1 50625:1 50626:1 50627:1 50628:1 86308:1 86371:2.3540137 86372:2.8114285 86373:3.8345578 
0 3535.945719679717 942:1 943:1 986:1 1321:1 1322:1 1332:1 1597:1 1598:1 1619:1 2398:1 2399:1 2447:1 4503:1 14525:1 20598:1 20599:1 20618:1 26568:1 26860:1 26861:1 26862:1 26863:1 26872:1 26873:1 26874:1 41262:1 41263:1 41283:1 50701:1 50702:1 50703:1 86371:1.7652188 86372:5.0445127 86373:2.1902686 
0 54.4147541862558 15:1 19:1 963:1 2640:1 2641:1 2696:1 7000:1 7022:1 12546:1 13181:1 15084:1 15085:1 15111:1 15613:1 15614:1 15626:1 17276:1 17393:1 17394:1 17402:1 17403:1 17404:1 17405:1 19474:1 31288:1 40621:1 51077:1 51078:1 51079:1 51080:1 51081:1 51082:1 51083:1 51084:1 86308:3 86371:4.4947692 86372:5.7991767 86373:4.7060541 
0 3702.97708931199 12:1 18:1 27:1 143:1 1143:1 1363:1 1739:1 1799:1 1960:1 3168:1 3194:1 4799:1 4816:1 6451:1 10347:1 13593:1 14786:1 20671:1 26624:1 32096:1 33499:1 34470:1 36181:1 38410:1 44557:1 51255:1 51256:1 51257:1 51258:1 51259:1 51260:1 51261:1 51262:1 51263:1 51264:1 51265:1 51266:1 51267:1 51268:1 51269:1 86308:4 86371:11.007532 86372:8.0566917 86373:11.935776 
0 1277.778831421089 3:1 576:1 698:1 2347:1 4242:1 4800:1 10913:1 13638:1 20564:1 51320:1 51565:1 51566:1 51567:1 51568:1 51569:1 51570:1 51571:1 86308:1 86314:1 86371:3.0993326 86372:3.4601211 86373:3.4405462 
0 853.4635481515544 18:1 68:1 226:1 593:1 3591:1 5147:1 7248:1 8503:1 51704:1 51705:1 51706:1 51707:1 51708:1 51709:1 86371:3.9304159 86372:3.6659967 86373:4.4035873 
0 1135.059802070355 20:1 77:1 576:1 836:1 2535:1 6070:1 17467:1 32404:1 41129:1 41131:1 41132:1 51710:1 51711:1 86308:1 86316:1 86371:2.6040899 86372:3.274887 86373:3.1210232 
2567.841528872358 4923.075762773094 3:1 15:1 115:1 227:1 431:1 1407:1 1542:1 4865:1 9254:1 18210:1 27820:1 33559:1 51744:1 51745:1 51746:1 51747:1 51748:1 51749:1 51750:1 51751:1 51752:1 51753:1 51754:1 51755:1 51756:1 86308:1 86371:5.7379972 86372:5.4285787 86373:4.8334242 
0 2819.175755289145 60:1 160:1 763:1 1050:1 4450:1 5532:1 10172:1 10189:1 20638:1 22211:1 40054:1 51778:1 51779:1 51780:1 51781:1 51782:1 51783:1 86371:3.0620695 86372:4.1409265 86373:3.7970041 
0 4536.775638248089 18:1 68:1 457:1 640:1 868:1 1168:1 1587:1 1603:1 3267:1 3271:1 3483:1 3515:1 5699:1 6484:1 6673:1 6676:1 7449:1 8411:1 10037:1 12935:1 12966:1 23646:1 24475:1 33849:1 33857:1 37736:1 37737:1 51942:1 51943:1 51944:1 51945:1 51946:1 51947:1 51948:1 51949:1 51950:1 86308:2 86371:9.4827686 86372:7.625373 86373:8.8918584 
0 5780.849508124444 3591:1 22538:1 45689:1 86371:0.85789349 86372:1.4232117 86373:1.7188949 
0 203.0982820187831 15:1 18:1 68:1 93:1 151:1 160:1 178:1 234:1 555:1 566:1 6391:1 9430:1 9457:1 10707:1 14156:1 19181:1 22127:1 52195:1 52196:1 52197:1 52198:1 52199:1 52200:1 52201:1 52202:1 86371:6.0849161 86372:7.2682492 86373:6.6468347 
6814.991546409166 10661.84043392462 3:1 590:1 3515:1 10913:1 17276:1 26130:1 52282:1 52283:1 52284:1 52285:1 52286:1 86371:2.6535885 86372:2.1234416 86373:2.2229699 
4911.415245473958 13175.3368084627 219:1 226:1 576:1 1174:1 2526:1 10188:1 10220:1 24720:1 37066:1 52295:1 52296:1 86314:1 86371:2.6904093 86372:1.402837 86373:2.9067536 
0 330.1466206404245 942:1 943:1 986:1 1321:1 1322:1 1332:1 1597:1 1598:1 1619:1 2406:1 2407:1 2458:1 3202:1 3203:1 3220:1 3768:1 3769:1 3836:1 4555:1 7532:1 33607:1 52846:1 52847:1 52848:1 52849:1 52850:1 52851:1 86371:1.6577475 86372:4.6925012 86373:1.6497513 
601.2474148211958 1017.25714512401 3:1 18:1 68:1 77:1 153:1 219:1 576:1 2519:1 2524:1 2528:1 2535:1 2818:1 3066:1 3115:1 8374:1 25317:1 53010:1 53011:1 53012:1 53013:1 86314:1 86371:4.2057576 86372:4.4739295 86373:3.3203129 
0 3515.184966688298 18:1 52:1 63:1 482:1 508:1 3718:1 4854:1 10717:1 16481:1 26680:1 28988:1 29926:1 35181:1 40056:1 48299:1 53230:1 53231:1 53232:1 53233:1 53234:1 53235:1 53236:1 53237:1 53238:1 53239:1 53240:1 53241:1 53242:1 53243:1 86308:3 86371:7.6334293 86372:5.8976684 86373:8.4689023 
0 1509.731430443428 5:1 18:1 68:1 152:1 293:1 458:1 836:1 1429:1 1430:1 1438:1 4188:1 4781:1 9840:1 10567:1 17843:1 43296:1 53570:1 53571:1 53572:1 53573:1 53574:1 53575:1 53576:1 53577:1 53578:1 53579:1 86308:1 86316:1 86371:4.5684597 86372:6.1042226 86373:5.3273177 
0 2986.659678660762 166:1 227:1 522:1 836:1 1427:1 1488:1 6652:1 7449:1 8651:1 18856:1 23176:1 23182:1 26070:1 53753:1 53754:1 53755:1 53756:1 53757:1 53758:1 53759:1 53760:1 53761:1 53762:1 86308:3 86316:1 86371:4.0509828 86372:4.2519485 86373:4.6970687 
2419.118417032959 8502.451413685689 18:1 68:1 151:1 289:1 640:1 734:1 971:1 1018:1 4728:1 4740:1 5663:1 16186:1 16188:1 37836:1 54178:1 54179:1 54180:1 86308:2 86314:1 86371:4.4304465 86372:2.9613203 86373:4.6082333 
0 11.36991778610831 5:1 157:1 598:1 647:1 2318:1 2548:1 3324:1 5747:1 17707:1 18191:1 47832:1 54204:1 54205:1 54206:1 54207:1 54208:1 54209:1 54210:1 54211:1 86371:3.1108618 86372:4.0042665 86373:3.8848718 
0 1761.833801720827 15:1 121:1 172:1 475:1 1137:1 1149:1 2606:1 4075:1 4352:1 5934:1 7084:1 8424:1 14718:1 14788:1 18049:1 30060:1 30061:1 30066:1 34089:1 35718:1 41054:1 42524:1 54250:1 54251:1 54252:1 54253:1 54254:1 54255:1 54256:1 54257:1 54258:1 86308:5 86371:6.8273742 86372:5.463783 86373:7.7088429 
0 1013.765541407013 6:1 18:1 68:1 472:1 473:1 474:1 487:1 1341:1 1748:1 1999:1 4557:1 6357:1 9048:1 9669:1 23515:1 26267:1 36283:1 53524:1 53900:1 54319:1 54320:1 54321:1 54322:1 54323:1 54324:1 54325:1 54326:1 54327:1 54328:1 54329:1 54330:1 54331:1 54332:1 54333:1 54334:1 54335:1 86308:2 86315:1 86371:9.3255552 86372:8.5295574 86373:9.1448874 
0 1150.195835487491 60:1 169:1 226:1 576:1 1174:1 1634:1 4094:1 7154:1 8403:1 10516:1 26372:1 34453:1 54859:1 54860:1 54861:1 54862:1 54863:1 54864:1 54865:1 86315:1 86371:3.2939663 86372:3.7719098 86373:3.9341239 
0 1184.406515442146 3:1 18:1 68:1 98:1 126:1 151:1 160:1 168:1 226:1 227:1 288:1 457:1 482:1 576:1 640:1 821:1 836:1 971:1 1022:1 1431:1 1455:1 1540:1 1935:1 2013:1 2210:1 2249:1 2622:1 3025:1 3069:1 3073:1 3076:1 3086:1 3098:1 3103:1 3891:1 5784:1 6479:1 6494:1 7739:1 7778:1 8094:1 8100:1 8353:1 10567:1 13333:1 14817:1 14975:1 15393:1 18207:1 20346:1 22793:1 22842:1 24767:1 25319:1 28855:1 34366:1 38061:1 38119:1 55132:1 55133:1 55134:1 55135:1 55136:1 55137:1 55138:1 55139:1 55140:1 55141:1 55142:1 55143:1 55144:1 55145:1 55146:1 55147:1 55148:1 55149:1 55150:1 55151:1 55152:1 55153:1 55154:1 55155:1 86308:2 86314:2 86316:2 86371:18.256418 86372:18.483168 86373:16.260414 
1882.959618592698 5468.100973176265 173:1 427:1 529:1 740:1 1188:1 5504:1 55222:1 55223:1 55224:1 86308:1 86371:2.0234684 86372:1.8280372 86373:2.1484944 
1737.967127958031 8678.201395426055 3:1 93:1 143:1 156:1 157:1 288:1 767:1 776:1 777:1 2242:1 4188:1 6414:1 20243:1 46678:1 47908:1 55426:1 55427:1 86308:1 86310:0.013633205 86312:0.013633205 86371:4.0307959 86372:2.8930265 86373:4.0761776 
3621.800905794938 2547.735294512149 5:1 15:1 164:1 173:1 226:1 2188:1 2894:1 3516:1 5039:1 5049:1 5664:1 7412:1 9298:1 10536:1 11140:1 20080:1 27214:1 42951:1 55572:1 55573:1 55574:1 55575:1 55576:1 55577:1 55578:1 55579:1 55580:1 55581:1 55582:1 55583:1 55584:1 55585:1 86308:5 86371:7.4202112 86372:6.0121285 86373:5.5676603 
0 263.4275552541515 5:1 59:1 92:1 95:1 97:1 98:1 99:1 110:1 111:1 151:1 230:1 433:1 1168:1 1741:1 3067:1 3516:1 5582:1 7232:1 7449:1 9298:1 12371:1 13893:1 14885:1 14886:1 22838:1 23121:1 23130:1 23131:1 46848:1 51945:1 55863:1 55864:1 55865:1 55866:1 55867:1 55868:1 55869:1 55870:1 55871:1 55872:1 86308:1 86371:6.9032828 86372:8.8152032 86373:6.2815141 
0 2137.118642146453 15:1 169:1 207:1 286:1 2151:1 2894:1 9123:1 9124:1 9155:1 9495:1 9496:1 9507:1 11062:1 13918:1 15527:1 16556:1 16574:1 29938:1 33086:1 55873:1 55874:1 55875:1 55876:1 55877:1 55878:1 55879:1 86308:6 86371:5.3733663 86372:4.1796507 86373:5.4469829 
1114.595256060439 1381.87329185576 18:1 49:1 68:1 121:1 138:1 257:1 1942:1 2190:1 2346:1 3024:1 3143:1 3337:1 7474:1 7487:1 7506:1 15545:1 15558:1 16010:1 25311:1 26102:1 29926:1 39433:1 55974:1 55975:1 55976:1 55977:1 55978:1 55979:1 55980:1 55981:1 55982:1 55983:1 55984:1 55985:1 55986:1 55987:1 55988:1 86308:5 86371:9.5719344 86372:8.7155909 86373:7.7124747 
1603.656481899551 4424.821956745725 3:1 5:1 18:1 61:1 68:1 69:1 91:1 98:1 99:1 111:1 115:1 160:1 289:1 425:1 778:1 942:1 943:1 986:1 1025:1 1035:1 1050:1 1052:1 1321:1 1322:1 1332:1 1384:1 1589:1 1590:1 1608:1 3338:1 3509:1 3733:1 3734:1 3790:1 4781:1 5664:1 6039:1 7404:1 7405:1 8344:1 9254:1 9751:1 9817:1 9859:1 10178:1 10772:1 12734:1 12737:1 14658:1 15283:1 15991:1 16226:1 18191:1 19819:1 25190:1 25191:1 33383:1 34558:1 35133:1 37134:1 37743:1 40450:1 41262:1 41263:1 41283:1 41284:1 45319:1 45320:1 45336:1 45337:1 45654:1 49693:1 50702:1 56286:1 56287:1 56288:1 56289:1 56290:1 56291:1 56292:1 56293:1 56294:1 56295:1 56296:1 56297:1 56298:1 56299:1 56300:1 56301:1 56302:1 56303:1 56304:1 56305:1 56306:1 56307:1 56308:1 56309:1 56310:1 56311:1 56312:1 56313:1 56314:1 56315:1 86371:31.833504 86372:31.17295 86373:20.993546 
0 1207.226450898858 15:1 18:1 68:1 121:1 137:1 138:1 482:1 508:1 528:1 1527:1 1736:1 2107:1 2287:1 2816:1 3948:1 4311:1 4312:1 5599:1 7184:1 9987:1 16106:1 18185:1 24257:1 26761:1 30010:1 33500:1 38777:1 41059:1 56325:1 56326:1 56327:1 56328:1 56329:1 56330:1 56331:1 56332:1 56333:1 56334:1 56335:1 56336:1 56337:1 56338:1 56339:1 56340:1 56341:1 86308:8 86310:0.22531247 86312:0.22531247 86371:11.744007 86372:9.4854632 86373:11.77053 
0 106.6100721080626 15:1 23:1 56:1 479:1 1749:1 2287:1 4864:1 5650:1 5838:1 8083:1 8953:1 13000:1 15050:1 20298:1 47007:1 48758:1 49374:1 49379:1 56406:1 56407:1 56408:1 56409:1 56410:1 56411:1 56412:1 56413:1 56414:1 56415:1 56416:1 56417:1 56418:1 56419:1 56420:1 86308:5 86371:8.0594719 86372:7.6822533 86373:7.2582748 
0 2366.318959887701 115:1 271:1 575:1 3610:1 56421:1 86371:1.2370489 86372:1.7659892 86373:1.9969619 
0 7303.461171928851 3:1 61:1 169:1 288:1 836:1 2557:1 3103:1 5807:1 7382:1 27989:1 35632:1 52404:1 57031:1 57032:1 57033:1 57034:1 57035:1 86308:1 86316:1 86371:2.3065076 86372:3.4728313 86373:4.2206611 
0 1305.476117642016 942:1 943:1 986:1 1597:1 1598:1 1619:1 3496:1 3497:1 3511:1 3512:1 5407:1 5408:1 5438:1 9556:1 9557:1 9574:1 11458:1 11459:1 11470:1 17248:1 25054:1 25055:1 25090:1 25091:1 29805:1 46037:1 46044:1 57173:1 57174:1 57175:1 57176:1 57177:1 57178:1 57179:1 57180:1 86308:1 86371:2.4080198 86372:5.2901438 86373:2.3018364 
7437.148303315858 8984.799254346362 60:1 289:1 1239:1 2892:1 3052:1 6067:1 6075:1 6076:1 8495:1 57181:1 57182:1 57183:1 57184:1 86371:3.2499772 86372:2.3221009 86373:2.4279218 
0 434.8907150938977 3:1 15:1 91:1 462:1 870:1 942:1 943:1 986:1 1321:1 1322:1 1332:1 1597:1 1598:1 1619:1 4555:1 6772:1 7048:1 16684:1 16690:1 18192:1 19486:1 21206:1 21207:1 21238:1 21577:1 28264:1 28265:1 28267:1 28268:1 28269:1 38138:1 51610:1 57494:1 57495:1 57496:1 57497:1 57498:1 57499:1 57500:1 57501:1 57502:1 86308:1 86371:3.9348549 86372:7.6125097 86373:4.4526354 
0 8652.280641712179 59:1 151:1 431:1 1456:1 5582:1 12363:1 16279:1 32193:1 32194:1 35850:1 57563:1 57564:1 86371:2.8132217 86372:2.4870716 86373:3.6997067 
0 367.2094641451146 3:1 18:1 68:1 168:1 288:1 823:1 7048:1 7207:1 8308:1 57501:1 57565:1 57566:1 57567:1 57568:1 57569:1 57570:1 57571:1 57572:1 86308:1 86371:3.7663541 86372:4.4105417 86373:3.8231042 
9651.262198550507 8939.579839857035 18:1 77:1 115:1 2151:1 3327:1 6307:1 6573:1 7153:1 14173:1 45274:1 57747:1 57748:1 57749:1 57750:1 86308:2 86371:3.890804 86372:2.1013984 86373:3.0077976 
0 4085.107238451991 5:1 18:1 68:1 166:1 882:1 1427:1 22849:1 53755:1 57974:1 57975:1 57976:1 57977:1 86308:1 86371:3.5315757 86372:3.746337 86373:3.7220874 
0 2153.03104902716 1451:1 2013:1 12968:1 25853:1 58090:1 58091:1 58092:1 86371:1.2487597 86372:1.9924031 86373:1.7588372 
0 2643.914294348418 18:1 19:1 143:1 529:1 735:1 1312:1 1345:1 1883:1 2346:1 3906:1 3929:1 4072:1 4275:1 4799:1 6564:1 8531:1 9620:1 9621:1 9635:1 9636:1 11124:1 11169:1 15496:1 16008:1 18068:1 19416:1 19474:1 21101:1 25180:1 25457:1 28995:1 37813:1 39941:1 50217:1 58620:1 58621:1 58622:1 58623:1 58624:1 58625:1 58626:1 58627:1 58628:1 58629:1 58630:1 58631:1 86308:10 86371:10.827814 86372:7.1264169 86373:13.045769 
0 1757.970708608607 60:1 93:1 170:1 288:1 1164:1 1168:1 1179:1 3052:1 7840:1 8389:1 9841:1 11034:1 12693:1 34578:1 58632:1 58633:1 58634:1 58635:1 58636:1 58637:1 86371:4.1513359 86372:4.0994632 86373:4.7492009 
0 2387.832590473831 5:1 61:1 93:1 98:1 1025:1 1403:1 3281:1 3282:1 3353:1 14130:1 15378:1 16313:1 53428:1 55418:1 55653:1 59066:1 59067:1 59068:1 86308:1 86371:3.3287797 86372:4.0659453 86373:3.6052751 
0 576.5780723316784 942:1 943:1 986:1 1088:1 1089:1 1108:1 1597:1 1598:1 1619:1 2406:1 2407:1 2408:1 2409:1 2458:1 2460:1 2481:1 4555:1 57539:1 57540:1 57555:1 59134:1 59135:1 59136:1 59137:1 59138:1 59139:1 59140:1 86371:1.2691702 86372:4.5442492 86373:2.1865806 
0 890.3797041100631 15:1 18:1 286:1 789:1 790:1 809:1 863:1 1283:1 1299:1 1894:1 2191:1 2631:1 7039:1 13546:1 22482:1 35678:1 35679:1 35698:1 39666:1 59489:1 59490:1 59491:1 59492:1 59493:1 59494:1 59495:1 59496:1 59497:1 59498:1 59499:1 59500:1 59501:1 59502:1 86308:8 86371:7.0780487 86372:5.919568 86373:7.0023833 
0 4961.653420606318 6:1 494:1 1345:1 4268:1 39881:1 59606:1 59607:1 59608:1 59609:1 86308:1 86315:1 86371:2.1403027 86372:1.8905103 86373:2.969187 
0 3500.870026011187 3:1 18:1 77:1 160:1 555:1 566:1 576:1 778:1 1451:1 1463:1 2519:1 2528:1 2535:1 3066:1 11203:1 22872:1 25317:1 37560:1 37561:1 59889:1 86371:4.323956 86372:4.4463786 86373:4.2296654 
0 1916.127995812013 12:1 169:1 207:1 375:1 528:1 2619:1 5364:1 8538:1 15515:1 17397:1 17726:1 26418:1 27192:1 29734:1 31244:1 39374:1 59958:1 59959:1 59960:1 59961:1 59962:1 59963:1 59964:1 59965:1 59966:1 59967:1 59968:1 86308:1 86371:5.9378591 86372:5.9404429 86373:6.121698 
0 1059.18296739177 3:1 18:1 62:1 95:1 169:1 971:1 1018:1 1500:1 2242:1 5659:1 7621:1 7622:1 7627:1 24723:1 26819:1 60106:1 60107:1 60108:1 60109:1 60110:1 60111:1 60112:1 60113:1 60114:1 86308:1 86314:1 86371:5.2424168 86372:5.0396518 86373:4.7179314 
0 1554.45599781189 18:1 98:1 153:1 168:1 1628:1 10852:1 10857:1 30142:1 46176:1 59428:1 60130:1 60131:1 60132:1 60133:1 60134:1 86371:2.4908159 86372:3.1562487 86373:3.3529354 
0 5663.942390738496 3:1 6:1 870:1 2323:1 17221:1 30162:1 60304:1 60305:1 60306:1 86315:1 86371:1.4703514 86372:1.9853456 86373:2.544303 
0 6269.274602951026 168:1 429:1 445:1 60401:1 60402:1 86371:0.67996568 86372:1.6363685 86373:1.6836658 
0 10974.14484256978 942:1 943:1 986:1 2406:1 2407:1 2458:1 4109:1 4543:1 4550:1 41434:1 60614:1 86371:0.72030651 86372:1.8464012 86373:1.4332923 
7533.225609309805 7196.306851963349 286:1 299:1 1019:1 1428:1 3067:1 7622:1 10037:1 11777:1 18205:1 22911:1 24475:1 37562:1 54763:1 60696:1 60697:1 60698:1 60699:1 60700:1 60701:1 60702:1 60703:1 86308:1 86315:2 86371:10.624508 86372:7.6877029 86373:6.6877889 
0 1620.90601790723 3:1 15:1 18:1 68:1 956:1 957:1 1000:1 1061:1 1062:1 1075:1 1092:1 1093:1 1112:1 1451:1 1463:1 2818:1 3115:1 3263:1 7962:1 7963:1 7972:1 8295:1 9119:1 10248:1 10249:1 10250:1 10260:1 10264:1 11203:1 15379:1 15734:1 18217:1 21200:1 21201:1 21218:1 23963:1 28029:1 46449:1 46450:1 46467:1 60869:1 60870:1 60871:1 60872:1 60873:1 60874:1 60875:1 60876:1 86308:1 86316:1 86371:6.0536074 86372:7.1623736 86373:5.784019 
0 200.7883921579246 6:1 18:1 68:1 160:1 168:1 429:1 836:1 1024:1 1427:1 10507:1 10509:1 22857:1 30938:1 48855:1 57172:1 60909:1 60910:1 60911:1 60912:1 60913:1 60914:1 86315:1 86316:1 86371:4.0803905 86372:5.2221075 86373:4.697502 
0 1848.197905719058 3:1 5:1 18:1 59:1 61:1 68:1 91:1 98:1 227:1 778:1 1050:1 2331:1 3070:1 3306:1 3340:1 3410:1 3421:1 3422:1 4188:1 6392:1 7875:1 8284:1 12101:1 14658:1 21041:1 30237:1 31584:1 36733:1 61062:1 61063:1 61064:1 61065:1 61066:1 61067:1 61068:1 61069:1 61070:1 86308:2 86371:8.9832368 86372:9.8628877 86373:7.1538755 
0 805.7912426485449 12:1 15:1 18:1 52:1 164:1 216:1 220:1 286:1 361:1 1341:1 1355:1 4903:1 6806:1 7412:1 12617:1 22482:1 23490:1 26994:1 30981:1 31919:1 33788:1 33792:1 37177:1 55568:1 56905:1 61314:1 61315:1 61316:1 61317:1 61318:1 61319:1 61320:1 61321:1 61322:1 61323:1 61324:1 61325:1 61326:1 61327:1 61328:1 61329:1 61330:1 61331:1 61332:1 86308:6 86371:11.257894 86372:9.1044917 86373:10.637615 
0 6817.716976066023 216:1 286:1 6177:1 20763:1 23023:1 34385:1 61390:1 61391:1 61392:1 61393:1 61394:1 61395:1 61396:1 61397:1 86308:1 86371:3.6631451 86372:2.3394121 86373:3.9974429 
0 8072.482214133918 3:1 151:1 160:1 288:1 424:1 555:1 566:1 836:1 1432:1 2554:1 4016:1 5583:1 10707:1 16268:1 23581:1 37561:1 43084:1 61476:1 61477:1 61478:1 61479:1 61480:1 86316:1 86371:4.50678 86372:4.5043836 86373:4.9888365 
0 2857.201552374143 18:1 63:1 219:1 2309:1 2508:1 5007:1 8374:1 13333:1 15950:1 23617:1 55874:1 59500:1 61485:1 61486:1 61487:1 61488:1 61489:1 61490:1 61491:1 61492:1 61493:1 86308:1 86314:1 86371:5.2576093 86372:4.3915925 86373:5.3507981 
0 382.5991713928867 18:1 68:1 114:1 121:1 528:1 1137:1 1149:1 1367:1 1955:1 4994:1 5603:1 5931:1 21090:1 24854:1 29136:1 30850:1 31020:1 31757:1 39831:1 45676:1 45677:1 45683:1 52869:1 52870:1 61573:1 61574:1 61575:1 61576:1 61577:1 61578:1 61579:1 61580:1 61581:1 61582:1 86308:6 86371:7.9921995 86372:6.3936889 86373:8.6141116 
0 2334.036942258984 3:1 61:1 393:1 462:1 617:1 647:1 1407:1 2324:1 3304:1 4022:1 4023:1 4033:1 11221:1 13870:1 20392:1 20398:1 26202:1 62130:1 62131:1 62132:1 62133:1 62134:1 62135:1 62136:1 62137:1 62138:1 86308:2 86371:4.8532707 86372:5.4225624 86373:5.7241669 
0 4430.864433177804 18:1 318:1 665:1 704:1 731:1 1234:1 1282:1 1292:1 2797:1 4075:1 4427:1 10546:1 10906:1 12013:1 12217:1 13917:1 51291:1 55321:1 60271:1 62388:1 62389:1 62390:1 62391:1 62392:1 62393:1 62394:1 62395:1 62396:1 62397:1 86308:1 86371:6.6181191 86372:4.299328 86373:9.0825529 
0 4692.556748857445 2241:1 62441:1 62442:1 62443:1 62444:1 62445:1 62446:1 86308:1 86371:1.7491987 86372:2.0643245 86373:2.1864769 
0 1588.025150608029 18:1 49:1 68:1 114:1 173:1 475:1 494:1 1408:1 3897:1 3910:1 7579:1 7806:1 8077:1 8078:1 8536:1 9622:1 13545:1 21739:1 30410:1 43677:1 54593:1 62916:1 62917:1 62918:1 62919:1 62920:1 62921:1 62922:1 62923:1 62924:1 62925:1 86308:7 86371:8.2211882 86372:5.7483101 86373:8.0305018 
0 7930.824644254563 5321:1 35215:1 63013:1 86308:1 86310:0.5 86312:0.5 86371:0.33333333 86372:0.46666667 86373:2.2 
158.073031101217 188.1449424626695 3:1 18:1 68:1 91:1 152:1 157:1 166:1 193:1 576:1 778:1 1580:1 1584:1 1628:1 3073:1 4022:1 4023:1 4033:1 4916:1 5348:1 8353:1 8943:1 9358:1 11535:1 13727:1 17185:1 18228:1 19675:1 19679:1 22415:1 35465:1 44447:1 63051:1 63052:1 63053:1 63054:1 63055:1 63056:1 63057:1 63058:1 63059:1 63060:1 63061:1 63062:1 63063:1 63064:1 86308:2 86371:10.239467 86372:11.381425 86373:7.379108 
3068.669852065896 5118.981071820883 18:1 68:1 160:1 286:1 288:1 299:1 305:1 558:1 590:1 1398:1 2554:1 3254:1 6613:1 6622:1 10860:1 13859:1 13865:1 13866:1 14142:1 42072:1 50555:1 63482:1 63483:1 63484:1 63485:1 86371:8.0997942 86372:6.2458692 86373:5.6543367 
0 1450.084768954408 576:1 2818:1 3254:1 3262:1 3263:1 5859:1 12094:1 17018:1 17019:1 17027:1 17882:1 43787:1 63556:1 63557:1 63558:1 63559:1 86371:2.8861311 86372:3.7078846 86373:3.4059843 
0 6262.045912234633 394:1 395:1 423:1 1137:1 1149:1 2107:1 2309:1 4292:1 4312:1 4313:1 4892:1 5516:1 11125:1 12747:1 30646:1 31147:1 31148:1 44845:1 63678:1 63679:1 63680:1 86308:2 86371:4.9038142 86372:3.0802228 86373:7.015963 
-0 445.9108030249356 18:1 68:1 143:1 699:1 2184:1 2185:1 2197:1 4710:1 4942:1 4943:1 4963:1 5129:1 6044:1 9060:1 9597:1 11595:1 11609:1 11610:1 14199:1 15742:1 21071:1 28422:1 29319:1 37260:1 50500:1 50501:1 50520:1 57985:1 63807:1 63808:1 63809:1 63810:1 63811:1 63812:1 63813:1 63814:1 63815:1 63816:1 63817:1 63818:1 63819:1 63820:1 63821:1 63822:1 86308:4 86371:7.5165283 86372:8.2172933 86373:7.2661784 
0 2844.952145993647 18:1 60:1 68:1 93:1 168:1 1025:1 3353:1 4768:1 6381:1 22090:1 63836:1 63837:1 63838:1 63839:1 63840:1 86308:1 86371:4.5914854 86372:4.7467339 86373:4.6617808 
1905.443811073996 2319.930796960401 157:1 227:1 289:1 1458:1 1482:1 3304:1 6182:1 6199:1 25638:1 63975:1 63976:1 63977:1 63978:1 63979:1 63980:1 63981:1 63982:1 63983:1 86308:1 86316:1 86371:4.12853 86372:4.8504687 86373:3.0210013 
0 4672.48722663987 93:1 227:1 1456:1 3052:1 4200:1 7839:1 7840:1 12210:1 64616:1 64617:1 64618:1 86308:1 86371:2.0865308 86372:2.1407151 86373:2.7727541 
0 3762.372075612871 2287:1 6736:1 7581:1 8685:1 12544:1 12547:1 12548:1 12559:1 64725:1 64726:1 64727:1 86308:2 86371:2.1424062 86372:1.7068726 86373:4.1507212 
0 317.9179337936813 59:1 98:1 153:1 156:1 168:1 556:1 576:1 1456:1 6407:1 7951:1 8353:1 12919:1 15647:1 32117:1 35051:1 49367:1 64785:1 64786:1 64787:1 64788:1 64789:1 64790:1 64791:1 64792:1 64793:1 86308:2 86371:5.0387549 86372:5.9291269 86373:5.0321182 
0 168.1142570394029 3:1 18:1 68:1 98:1 168:1 226:1 227:1 457:1 514:1 778:1 836:1 882:1 2013:1 7620:1 8215:1 8217:1 9880:1 10567:1 11962:1 14099:1 33540:1 46680:1 53481:1 55145:1 63435:1 64858:1 64859:1 64860:1 64861:1 64862:1 64863:1 64864:1 64865:1 64866:1 64867:1 64868:1 86308:2 86316:1 86371:6.0914542 86372:8.122776 86373:6.7857697 
0 362.5954730207605 18:1 60:1 61:1 68:1 157:1 227:1 576:1 825:1 1025:1 1400:1 3106:1 6381:1 6392:1 9006:1 11653:1 15735:1 18363:1 19493:1 20023:1 33017:1 65272:1 65273:1 65274:1 65275:1 65276:1 65277:1 65278:1 65279:1 65280:1 65281:1 65282:1 65283:1 65284:1 86308:1 86371:6.5815807 86372:7.435982 86373:5.9824373 
558.7215362880912 11475.11004418352 93:1 2561:1 9544:1 10217:1 11653:1 25288:1 41144:1 65340:1 65341:1 65342:1 86371:2.2998649 86372:1.739152 86373:2.9609831 
0 2071.837862200144 15:1 18:1 68:1 164:1 172:1 316:1 523:1 528:1 1944:1 4557:1 4875:1 7417:1 7589:1 7590:1 7597:1 10011:1 10013:1 20159:1 20170:1 24344:1 34865:1 56102:1 61680:1 65294:1 65642:1 65643:1 65644:1 65645:1 65646:1 65647:1 65648:1 65649:1 65650:1 65651:1 65652:1 65653:1 65654:1 65655:1 65656:1 86308:3 86371:9.7563591 86372:7.822169 86373:10.421472 
0 2744.198011499555 18:1 121:1 528:1 617:1 735:1 750:1 1367:1 1945:1 1999:1 2257:1 2359:1 2618:1 3026:1 3708:1 7961:1 19473:1 21729:1 27067:1 30295:1 34530:1 49713:1 65662:1 65663:1 65664:1 65665:1 65666:1 65667:1 65668:1 65669:1 65670:1 65671:1 65672:1 65673:1 65674:1 65675:1 65676:1 86308:4 86371:8.109545 86372:6.2638398 86373:9.6266153 
0 1014.410410564696 18:1 68:1 152:1 288:1 576:1 869:1 6002:1 6673:1 7566:1 7680:1 10795:1 13722:1 18549:1 18562:1 27229:1 35750:1 49448:1 62139:1 65695:1 65696:1 65697:1 65698:1 65699:1 65700:1 65701:1 65702:1 86308:1 86371:5.7889294 86372:5.8184711 86373:6.3925995 
0 13242.37710903417 942:1 943:1 986:1 1317:1 1318:1 1325:1 1326:1 1327:1 1336:1 1337:1 65897:1 86308:1 86371:0.35714286 86372:1.343254 86373:2.2996032 
0 3087.831603002548 3:1 18:1 68:1 93:1 514:1 836:1 3066:1 3079:1 3107:1 3517:1 7207:1 7213:1 7214:1 8215:1 8217:1 10567:1 13477:1 16232:1 19218:1 19219:1 24490:1 40552:1 46262:1 48855:1 49260:1 66094:1 66095:1 66096:1 86308:1 86316:2 86371:6.3901491 86372:7.1903671 86373:6.4194838 
0 873.9398457866348 15:1 98:1 821:1 825:1 1025:1 2989:1 3068:1 6675:1 11316:1 23212:1 28251:1 42579:1 66223:1 66224:1 66225:1 66226:1 66227:1 66228:1 66229:1 66230:1 66231:1 86371:3.9423416 86372:4.6814756 86373:4.3761828 
0 687.2696147899279 18:1 68:1 157:1 166:1 167:1 288:1 522:1 836:1 942:1 943:1 986:1 1403:1 1589:1 1590:1 1608:1 1645:1 2222:1 2386:1 2510:1 3311:1 3496:1 3497:1 3511:1 3512:1 4114:1 4115:1 4167:1 4729:1 5097:1 6651:1 7449:1 7907:1 8783:1 9257:1 9294:1 9494:1 10567:1 11606:1 11607:1 11630:1 11869:1 11870:1 11879:1 12159:1 12160:1 12181:1 14284:1 14447:1 14505:1 14743:1 14744:1 14762:1 14827:1 14842:1 17142:1 18711:1 22135:1 23121:1 23769:1 25135:1 39099:1 57854:1 57855:1 57860:1 66508:1 66509:1 66510:1 66511:1 66512:1 66513:1 66514:1 66515:1 66516:1 66517:1 66518:1 66519:1 66520:1 66521:1 66522:1 66523:1 66524:1 66525:1 66526:1 66527:1 66528:1 66529:1 86308:2 86316:1 86371:11.804762 86372:15.274691 86373:9.9205471 
1695.277303493798 3921.524864599946 5:1 424:1 576:1 824:1 1456:1 14291:1 20656:1 24363:1 24836:1 59719:1 61477:1 66644:1 66645:1 66646:1 66647:1 66648:1 66649:1 66650:1 86308:1 86371:3.7821408 86372:3.8927456 86373:3.3251136 
3434.411805708228 0 18:1 59:1 61:1 68:1 151:1 219:1 1022:1 2554:1 3107:1 3118:1 3267:1 3271:1 5582:1 6643:1 7826:1 8338:1 8374:1 8400:1 10744:1 43023:1 43383:1 67038:1 67039:1 67040:1 67041:1 86308:2 86314:1 86371:6.8594636 86372:6.280232 86373:4.8603043 
0 6826.56848408032 290:1 2854:1 35524:1 67130:1 67131:1 67132:1 86371:1.1917066 86372:2.0440484 86373:1.764245 
0 220.1088853014913 3:1 18:1 68:1 162:1 168:1 227:1 576:1 1050:1 1170:1 2818:1 3115:1 3287:1 3373:1 4030:1 4180:1 4200:1 5353:1 10992:1 11540:1 14220:1 27506:1 30265:1 34629:1 40462:1 41539:1 49783:1 63939:1 67136:1 67137:1 67138:1 67139:1 67140:1 67141:1 67142:1 67143:1 67144:1 67145:1 67146:1 67147:1 67148:1 67149:1 86308:3 86371:9.4231321 86372:10.291044 86373:8.2858237 
33.26606313228999 0 60:1 91:1 168:1 288:1 557:1 762:1 1050:1 1385:1 1427:1 3517:1 4781:1 7872:1 11232:1 11306:1 13478:1 13975:1 55435:1 56232:1 67265:1 67266:1 67267:1 67268:1 67269:1 67270:1 67271:1 67272:1 67273:1 67274:1 86308:1 86371:5.3427319 86372:6.4990046 86373:4.1582634 
0 1081.713573488264 18:1 68:1 948:1 949:1 992:1 1061:1 1062:1 1075:1 7742:1 7743:1 7783:1 26870:1 26871:1 26885:1 29035:1 60341:1 67275:1 67276:1 67277:1 67278:1 67279:1 67280:1 86371:1.8047514 86372:3.3718203 86373:2.8234283 
0 1806.294460859135 15:1 169:1 3198:1 3199:1 3216:1 4799:1 7318:1 10340:1 10341:1 10397:1 12478:1 54319:1 67404:1 67405:1 67406:1 67407:1 67408:1 67409:1 67410:1 67411:1 67412:1 67413:1 86308:4 86371:3.4579437 86372:3.8636024 86373:3.6784538 
2210.120665797792 2275.462549583097 15082:1 15083:1 15108:1 17492:1 17493:1 17509:1 39406:1 39407:1 39410:1 67443:1 67444:1 86308:1 86371:1.1132479 86372:1.775641 86373:1.1111111 
0 1303.832522653749 3:1 18:1 68:1 91:1 168:1 286:1 520:1 576:1 4413:1 4768:1 8389:1 10978:1 20852:1 45172:1 57229:1 64458:1 67445:1 67446:1 67447:1 67448:1 67449:1 67450:1 67451:1 67452:1 86308:1 86371:5.6871445 86372:5.7747022 86373:5.5381533 
0 299872.2591251344 18:1 68:1 798:1 956:1 957:1 1000:1 1061:1 1062:1 1075:1 1076:1 1104:1 1105:1 1124:1 1597:1 1598:1 1619:1 1652:1 1653:1 1678:1 1786:1 1787:1 1794:1 4109:1 4543:1 4550:1 4556:1 8451:1 8452:1 8464:1 9380:1 9381:1 9392:1 15446:1 21227:1 22552:1 25263:1 25523:1 25549:1 28593:1 28594:1 28605:1 31222:1 38429:1 67593:1 67594:1 67595:1 67596:1 67597:1 67598:1 67599:1 67600:1 86308:1 86371:3.7087271 86372:8.0591651 86373:4.2321078 
0 3009.531492353694 15:1 59:1 93:1 151:1 168:1 227:1 522:1 826:1 869:1 2319:1 2826:1 7496:1 7738:1 7874:1 14287:1 21776:1 22538:1 23956:1 24759:1 26267:1 43469:1 50951:1 61438:1 67714:1 67715:1 67716:1 67717:1 67718:1 67719:1 67720:1 67721:1 67722:1 67723:1 67724:1 67725:1 67726:1 67727:1 67728:1 67729:1 67730:1 67731:1 86308:5 86371:8.5318716 86372:7.6798505 86373:8.7882778 
2045.534579628821 8343.494976754029 5:1 15:1 95:1 2241:1 2242:1 2247:1 3249:1 5390:1 7234:1 7621:1 7625:1 44685:1 46786:1 67741:1 67742:1 67743:1 67744:1 67745:1 86308:1 86316:1 86371:3.9419808 86372:3.0996135 86373:3.9584058 
2117.502668231833 4271.184519506061 3:1 152:1 868:1 1399:1 3282:1 5040:1 40212:1 55603:1 67959:1 67960:1 67961:1 67962:1 67963:1 67964:1 67965:1 86308:1 86371:2.9178771 86372:3.4999373 86373:2.5821855 
888.5895325871367 6314.829350606932 5:1 18:1 68:1 227:1 971:1 1018:1 1170:1 3266:1 4094:1 5663:1 8783:1 25940:1 31457:1 37836:1 56254:1 68170:1 68171:1 68172:1 68173:1 86308:1 86314:1 86371:5.636716 86372:4.143322 86373:5.219962 
0 1710.34244814538 3:1 93:1 458:1 575:1 576:1 599:1 8392:1 68269:1 68270:1 68271:1 68272:1 68273:1 86371:2.1873942 86372:3.0980133 86373:2.7145925 
0 3336.017612995274 173:1 288:1 3055:1 4022:1 4023:1 4033:1 6736:1 11731:1 26446:1 28915:1 32461:1 49448:1 49449:1 49450:1 49451:1 49452:1 86308:2 86371:3.8044975 86372:3.4953162 86373:3.7001863 
0 4017.512616778301 3:1 5:1 15:1 61:1 162:1 6010:1 8308:1 10579:1 12093:1 13340:1 34415:1 37486:1 37511:1 37999:1 68637:1 68638:1 68639:1 68640:1 68641:1 68642:1 86371:3.085491 86372:4.5111075 86373:4.4034015 
0 329.7100702690828 18:1 62:1 63:1 126:1 151:1 225:1 529:1 576:1 734:1 836:1 1628:1 1637:1 2228:1 3063:1 3107:1 5583:1 8531:1 20135:1 24446:1 26440:1 26591:1 45919:1 47088:1 53242:1 68737:1 68738:1 68739:1 68740:1 68741:1 68742:1 68743:1 68744:1 68745:1 68746:1 86308:2 86316:1 86371:6.8610655 86372:6.9242278 86373:7.2147067 
0 27.06916629383462 3:1 5:1 18:1 68:1 91:1 151:1 157:1 160:1 164:1 168:1 301:1 316:1 778:1 832:1 854:1 1540:1 1579:1 2818:1 2829:1 3070:1 3947:1 4384:1 5917:1 6615:1 7386:1 7456:1 8306:1 8334:1 10943:1 12879:1 14271:1 18158:1 18337:1 37936:1 56286:1 61273:1 68861:1 68862:1 68863:1 68864:1 68865:1 68866:1 68867:1 68868:1 68869:1 68870:1 68871:1 68872:1 68873:1 68874:1 68875:1 68876:1 68877:1 68878:1 68879:1 68880:1 68881:1 86371:13.730058 86372:15.73806 86373:13.531882 
0 1266.438093277073 18:1 68:1 1092:1 1093:1 1098:1 1099:1 1112:1 1118:1 2398:1 2399:1 2447:1 2664:1 2665:1 2722:1 3313:1 4544:1 4545:1 4553:1 6945:1 6955:1 18124:1 18530:1 36615:1 36616:1 36634:1 57868:1 69889:1 69890:1 69891:1 69892:1 69893:1 69894:1 69895:1 69896:1 86308:1 86371:2.3513183 86372:5.2364727 86373:3.412209 
3901.480768074954 505.3771543365621 18:1 68:1 164:1 286:1 528:1 3237:1 3247:1 6575:1 11484:1 12125:1 12485:1 18234:1 19722:1 30624:1 35446:1 41888:1 45603:1 69938:1 69939:1 69940:1 69941:1 69942:1 69943:1 69944:1 86308:4 86314:1 86371:6.4685686 86372:4.5034423 86373:5.0279891 
566.5771605926742 4274.53531905168 18:1 68:1 91:1 160:1 225:1 226:1 593:1 836:1 3382:1 7444:1 7449:1 7469:1 8316:1 9225:1 9229:1 9356:1 10567:1 27955:1 51739:1 54683:1 70095:1 86316:1 86371:4.6369573 86372:5.3892176 86373:3.9738251 
2141.626948745939 6648.226136914881 12:1 216:1 265:1 286:1 299:1 528:1 620:1 662:1 1860:1 1864:1 1955:1 1969:1 2816:1 8503:1 23515:1 24257:1 37273:1 40045:1 70099:1 70100:1 70101:1 70102:1 70103:1 70104:1 70105:1 70106:1 70107:1 70108:1 70109:1 70110:1 70111:1 86308:5 86310:0.04089893 86312:0.04089893 86371:10.574387 86372:5.7078205 86373:9.7177928 
0 1175.924956489247 18:1 68:1 77:1 1340:1 2519:1 2528:1 3515:1 4734:1 4757:1 7386:1 14710:1 14711:1 18099:1 23177:1 33848:1 45753:1 45754:1 45757:1 58346:1 65660:1 70117:1 70118:1 70119:1 70120:1 70121:1 70122:1 70123:1 86371:5.3136207 86372:5.8895029 86373:5.7968764 
0 247.0744281077635 219:1 227:1 290:1 1170:1 4729:1 6651:1 29169:1 29174:1 31457:1 34558:1 36047:1 36059:1 66516:1 70321:1 70322:1 70323:1 70324:1 86308:1 86314:1 86371:2.9264622 86372:3.720699 86373:3.3528388 
0 2340.066758224305 5:1 6:1 18:1 61:1 68:1 151:1 869:1 870:1 1039:1 1340:1 1363:1 1401:1 1449:1 1451:1 1462:1 4805:1 6511:1 8621:1 10700:1 13408:1 50530:1 70368:1 70369:1 70370:1 70371:1 70372:1 70373:1 70374:1 86308:1 86315:1 86371:5.9848341 86372:5.6242763 86373:6.3908897 
0 2593.380025169754 18:1 68:1 1098:1 1099:1 1118:1 1452:1 2020:1 3496:1 3497:1 3511:1 4913:1 5814:1 8477:1 18254:1 21906:1 22339:1 22340:1 22353:1 27574:1 31049:1 70445:1 70446:1 70447:1 70448:1 70449:1 70450:1 70451:1 70452:1 86371:6.8127062 86372:7.7625772 86373:6.4247166 
1934.848351350535 2722.331093992823 6:1 12:1 121:1 216:1 220:1 528:1 2153:1 8538:1 16740:1 19279:1 24869:1 70507:1 70508:1 70509:1 70510:1 70511:1 70512:1 70513:1 70514:1 70515:1 70516:1 70517:1 86308:4 86315:1 86371:5.614772 86372:4.4052725 86373:4.9799555 
0 413.5968007196652 3:1 18:1 68:1 216:1 765:1 1492:1 2191:1 3304:1 4292:1 4734:1 8486:1 14271:1 14410:1 18737:1 24485:1 25323:1 39344:1 67402:1 70566:1 70567:1 70568:1 70569:1 70570:1 70571:1 70572:1 70573:1 86371:5.9599158 86372:6.4436316 86373:6.5964526 
0 7035.278988889727 7549:1 28615:1 86371:0.53333333 86372:1.1588745 86373:1.3077922 
5512.135164756258 10002.25616774747 114:1 458:1 475:1 1171:1 1748:1 2557:1 6572:1 6580:1 47587:1 67094:1 70584:1 70585:1 70586:1 70587:1 70588:1 86308:4 86371:4.04171 86372:2.0984546 86373:3.8598354 
0 748.2863357136584 18:1 68:1 942:1 943:1 962:1 963:1 986:1 1006:1 1589:1 1590:1 1608:1 1786:1 1787:1 1794:1 1901:1 3509:1 3737:1 3738:1 3797:1 4541:1 4542:1 4548:1 6852:1 7208:1 13453:1 14228:1 14239:1 62730:1 62731:1 62737:1 70835:1 70836:1 70837:1 70838:1 70839:1 70840:1 70841:1 70842:1 70843:1 70844:1 70845:1 86371:4.3682386 86372:6.6852161 86373:3.9465452 
0 1390.934578893681 18:1 60:1 67:1 99:1 152:1 157:1 763:1 1142:1 1540:1 1580:1 4701:1 5754:1 10187:1 15847:1 22149:1 28053:1 28905:1 46481:1 70855:1 70856:1 70857:1 70858:1 70859:1 70860:1 70861:1 70862:1 70863:1 86371:5.165001 86372:5.7850846 86373:5.0499144 
1739.174438900666 1600.858989734196 151:1 288:1 590:1 1588:1 3070:1 4728:1 5212:1 5917:1 6606:1 8235:1 27804:1 38232:1 44006:1 53250:1 71065:1 71066:1 71067:1 71068:1 71069:1 71070:1 71071:1 71072:1 71073:1 86308:1 86371:4.6368083 86372:4.9930872 86373:3.3701046 
0 1398.46311948312 3:1 429:1 576:1 642:1 16623:1 25860:1 35496:1 35761:1 37486:1 63711:1 71453:1 71454:1 71455:1 71456:1 71457:1 86371:2.4307077 86372:3.6605269 86373:2.9087654 
0 1604.84765003217 18:1 68:1 286:1 429:1 960:1 961:1 1004:1 1061:1 1062:1 1065:1 1066:1 1075:1 1080:1 1102:1 1103:1 1122:1 1786:1 1787:1 1794:1 5411:1 5412:1 5446:1 9565:1 12471:1 22275:1 28796:1 34745:1 44959:1 44972:1 61240:1 71492:1 71493:1 71494:1 71495:1 71496:1 71497:1 86371:4.6487707 86372:6.5974913 86373:3.753738 
0 2276.954718936524 15:1 286:1 8283:1 9991:1 13512:1 20204:1 20216:1 31682:1 35325:1 36439:1 71613:1 71614:1 71615:1 71616:1 71617:1 71618:1 71619:1 71620:1 86371:3.6288475 86372:3.8132853 86373:4.5578673 
0 2634.584779843728 942:1 943:1 986:1 1597:1 1598:1 1619:1 2394:1 2395:1 2443:1 2590:1 2591:1 2616:1 3770:1 3771:1 3838:1 4425:1 4555:1 12624:1 64174:1 71768:1 71769:1 71770:1 71771:1 71772:1 86371:1.8712629 86372:4.3782652 86373:1.7504719 
0 4185.638205909869 18:1 93:1 226:1 227:1 514:1 836:1 1935:1 3025:1 3517:1 3848:1 4924:1 8215:1 8217:1 10567:1 11653:1 18363:1 24490:1 25288:1 37564:1 44636:1 71893:1 71894:1 86308:2 86316:1 86371:3.9362851 86372:4.4905327 86373:4.5731822 
0 127.2683547181767 928:1 929:1 942:1 943:1 972:1 986:1 1597:1 1598:1 1619:1 4479:1 4480:1 4504:1 4505:1 57246:1 57247:1 57248:1 57249:1 71963:1 71964:1 71965:1 71966:1 71967:1 71968:1 86371:1.3997915 86372:4.2324057 86373:1.3678028 
857.7924939732706 48.0396917156933 3:1 219:1 226:1 1022:1 7634:1 12968:1 13986:1 34138:1 34140:1 34141:1 72248:1 86314:1 86371:2.231518 86372:2.5518418 86373:2.2166402 
1963.540684370488 3121.45327790778 168:1 829:1 4200:1 6383:1 22726:1 72249:1 72250:1 72251:1 72252:1 86308:3 86371:1.8424206 86372:2.0071825 86373:2.1503968 
0 1546.433625955562 3:1 61:1 6180:1 6348:1 10312:1 22537:1 34627:1 72353:1 72354:1 72355:1 72356:1 72357:1 86371:2.3512585 86372:3.5397775 86373:2.108964 
0 624.517241692292 18:1 68:1 789:1 790:1 809:1 1098:1 1099:1 1118:1 1786:1 1787:1 1794:1 6926:1 6927:1 6935:1 19136:1 21235:1 39758:1 39772:1 60809:1 60810:1 72380:1 72381:1 86371:1.8550561 86372:3.4839763 86373:2.6609676 
0 1026.984377848488 143:1 389:1 415:1 619:1 620:1 638:1 734:1 3147:1 4217:1 4218:1 4236:1 7605:1 8356:1 8369:1 23430:1 23545:1 25612:1 26301:1 26302:1 26305:1 28091:1 28094:1 32375:1 41857:1 72422:1 72423:1 72424:1 72425:1 72426:1 72427:1 72428:1 72429:1 72430:1 72431:1 72432:1 72433:1 72434:1 72435:1 72436:1 72437:1 86308:5 86371:7.758333 86372:7.4540219 86373:8.7876451 
0 5249.426597121131 3:1 5:1 18:1 91:1 153:1 288:1 595:1 3266:1 4072:1 6045:1 12695:1 18233:1 18255:1 49606:1 72686:1 72687:1 72688:1 72689:1 72690:1 86371:3.3119264 86372:3.1938893 86373:4.4941842 
0 1425.980116528965 18:1 271:1 318:1 330:1 529:1 662:1 1143:1 1731:1 3687:1 5250:1 5251:1 5274:1 6074:1 7357:1 7371:1 7472:1 12394:1 15690:1 15711:1 21883:1 23614:1 23654:1 25415:1 32357:1 33080:1 33087:1 34865:1 57955:1 72759:1 72760:1 72761:1 72762:1 72763:1 72764:1 72765:1 72766:1 72767:1 72768:1 72769:1 72770:1 72771:1 72772:1 72773:1 72774:1 86308:5 86371:9.2709172 86372:7.6515829 86373:10.0775 
0 1523.734824479048 151:1 152:1 433:1 620:1 2579:1 2817:1 4730:1 11777:1 19102:1 19386:1 46863:1 52857:1 72802:1 72803:1 72804:1 72805:1 72806:1 72807:1 72808:1 72809:1 72810:1 86308:3 86315:1 86371:3.762769 86372:4.1864622 86373:5.0507689 
1263.126220993114 6313.552026532971 3:1 169:1 291:1 2505:1 3025:1 4091:1 4783:1 4794:1 4795:1 9341:1 50192:1 53119:1 55433:1 73143:1 73144:1 73145:1 73146:1 73147:1 86308:1 86314:1 86371:3.8817241 86372:3.1139568 86373:4.0043191 
0 2151.318214229809 18:1 60:1 68:1 168:1 169:1 207:1 226:1 593:1 824:1 4414:1 12967:1 18233:1 21669:1 28257:1 32450:1 50736:1 69361:1 73291:1 73292:1 73293:1 73294:1 86308:1 86371:5.3753963 86372:5.7678851 86373:5.8567186 
